tree
version=v4
num_class=1
num_tree_per_iteration=1
label_index=0
max_feature_idx=18
objective=binary sigmoid:1
feature_names=nw_s0 nw_s1 nw_s2 nw_s3 nw_s4 nw_s5 nw_s6 nw_s7 nw_s8 nw_s9 nw_r nw_d nw_diff towers_dead_R towers_dead_D towers_diff rax_dead_R rax_dead_D rax_diff
feature_infos=[0:78999] [0:68047] [0:80336] [0:88810] [0:74559] [0:84552] [0:69586] [0:67789] [0:70233] [0:81015] [3065:265954] [3190:291293] [-77035:73738] [11:80] [11.5:80] [3518.135986328125:4531.9619140625] [3565.371826171875:4551.98779296875] [-598.1416015625:478.154296875] [0:11]
tree_sizes=13657 13739 13762 13775 13740 13768 13750 13723 13728 13741 13769 13773 13755 13765 13709 13758 13766 13732 13756 13758 13704 13742 13742 13744 13763 13779 13716 13764 13772 13769 13779 13779 13736 13740 13763 13662 13708 13705 13667 13716 13773 13779 13670 13755 13725 13720 13729 13702 13669 13744 13679 13710 13784 13741 13700 13730 13721 13771 13780 13768 13693 13809 13738 13669 13708 13813 13745 13801 13756 13744 13749 13695 13786 13751 13688 13777 13725 13704 13755 13776 13729 13848 13811 13726 13848 13840 13867 13730 13763 13675 13751 13725 13764 13769 13827 13724 13819 13728 13640 13904 13734 13993 13694 14017 13742 13672 13729 13858 13865 13819 13722 13877 13782 13969 13722 13959 13920 13812 13788 13914 13892 13827 13671 13673 13918 13685 13775 13864 13720 13594 13908 13680 14002 13670 13733 13686 13699 13687 13696 13705 13926 13906 13621 13870 13621 13908 13788 13879 13870 13959 13836 13859 13776 13840 13935 13595 13790 13701 13691 13875 13696 13994 13884 13971 13792

Tree=0
num_leaves=127
num_cat=0
split_feature=17 18 12 12 12 6 18 17 16 17 14 11 12 18 7 12 8 12 12 16 8 12 2 0 17 9 2 18 11 0 9 12 16 7 9 2 12 17 12 0 8 1 17 11 17 12 12 7 12 2 2 16 17 11 17 1 9 12 12 9 2 17 1 7 13 14 11 12 12 12 1 9 8 8 14 11 0 12 8 11 7 11 18 15 6 7 7 7 18 7 8 7 1 17 18 15 1 0 17 18 7 1 0 6 6 6 16 16 7 9 12 2 17 16 17 6 16 0 1 8 9 2 11 2 9 18
split_gain=165413 129979 100321 26434.1 13342.7 18130.1 12571.4 11735.5 11609.7 9619.39 9087.96 7659.54 6987.22 6394.23 6387.59 6239.98 4527.07 4223.82 4108.63 4361.13 4049.28 3805.56 3553.15 3113.65 3019.84 2869.82 2771.98 2708.13 2301.27 2281.5 1969.28 2146.76 3017.52 1908.29 1667.6 1602.45 1547.33 1533.29 1484.67 1467.11 1446.43 3957.17 1303.9 1270.17 1248.99 1061.39 932.746 902.017 896.526 896.147 846.311 878.811 821.806 811.389 779.281 744.949 740.585 703.628 691.378 671.324 857.697 664.697 603.923 579.571 573.388 3246.16 982.964 560.898 547.439 541.351 531.136 579.186 521.619 1374.32 514.351 495.594 477.29 475.207 463.845 437.303 494.658 651.203 453.901 428.505 558.667 426.346 408.398 806.432 405.366 504.472 418.291 403.522 401.847 400.392 396.545 393.642 923.935 393.06 391.946 377.076 448.995 395.307 468.898 352.706 751.619 351.47 632.333 821.536 539.521 404.643 346.03 345.856 340.543 404.972 337.254 327.268 314.929 335.27 549.478 571.655 466.356 314.248 308.372 307.438 349.625 335.174
threshold=4.0241699218750009 9.5000000000000018 140.50000000000003 -474.49999999999994 -24257.499999999996 37278.000000000007 6.5000000000000009 108.03491210937501 3872.2861328125005 -36.343017578124993 12.09999990463257 153936.00000000003 -8046.4999999999991 6.5000000000000009 37823.500000000007 6105.5000000000009 37296.000000000007 3805.5000000000005 -12269.499999999998 4029.8728027343755 37296.000000000007 5938.5000000000009 25773.500000000004 23926.500000000004 108.03491210937501 37230.500000000007 33117.500000000007 7.5000000000000009 153936.00000000003 31079.000000000004 37230.500000000007 -6104.4999999999991 4020.7387695312505 37823.500000000007 22141.500000000004 36714.500000000007 -2138.4999999999995 -76.943725585937486 12967.500000000002 33388.500000000007 33742.500000000007 31179.000000000004 63.996826171875007 92196.000000000015 51.098022460937507 3919.5000000000005 1514.5000000000002 37823.500000000007 -13468.999999999998 29436.000000000004 10139.500000000002 4024.2492675781255 5.0820312500000009 153936.00000000003 -36.343017578124993 29647.000000000004 37230.500000000007 -9105.4999999999982 -5054.4999999999991 31445.000000000004 33117.500000000007 -30.876831054687496 33283.000000000007 30047.500000000004 42.633333206176765 43.100000381469734 116285.50000000001 -7111.4999999999991 16051.500000000002 -19501.999999999996 36808.500000000007 37230.500000000007 37296.000000000007 31527.500000000004 45.549999237060554 153936.00000000003 27272.000000000004 -5559.4999999999991 37296.000000000007 70540.500000000015 37823.500000000007 153936.00000000003 8.5000000000000018 4089.9050292968755 37278.000000000007 37823.500000000007 31710.500000000004 22747.500000000004 5.5000000000000009 34071.500000000007 29955.000000000004 19886.500000000004 36808.500000000007 45.219116210937507 7.5000000000000009 4172.4150390625009 36808.500000000007 31079.000000000004 24.107299804687504 8.5000000000000018 37823.500000000007 33283.000000000007 29503.500000000004 31297.000000000004 23659.500000000004 23208.500000000004 3889.035034179688 3886.4550781250005 18314.500000000004 22141.500000000004 -11515.499999999998 36714.500000000007 -76.943725585937486 3776.525024414063 156.20922851562503 26050.500000000004 4058.4409179687505 31079.000000000004 20009.500000000004 22680.500000000004 37230.500000000007 27328.500000000004 22135.500000000004 33117.500000000007 37230.500000000007 7.5000000000000009
decision_type=10 2 2 2 2 2 2 10 10 8 8 2 2 2 2 2 2 2 2 10 2 2 2 2 10 2 2 2 2 2 2 2 10 2 2 2 2 10 2 2 2 2 10 2 10 2 2 2 2 2 2 8 10 2 10 2 2 2 2 2 2 10 2 2 10 10 2 2 2 2 2 2 2 2 10 2 2 2 2 2 2 2 2 10 2 2 2 2 2 2 2 2 2 10 2 10 2 2 10 2 2 2 2 2 2 2 10 10 2 2 2 2 10 10 10 2 8 2 2 2 2 2 2 2 2 2
left_child=1 2 4 7 13 9 29 18 15 58 34 17 23 14 -1 46 21 67 19 44 38 37 -21 92 45 48 115 33 -29 55 31 -13 49 111 -5 54 43 121 79 57 41 -15 52 -14 69 70 -4 -43 -8 -33 -19 -52 97 -50 68 -7 -38 74 -6 60 77 94 98 -28 65 105 -67 -3 -23 -2 71 93 73 -27 114 -61 78 -54 -53 -17 81 82 -81 84 -46 -44 87 -18 -40 90 -90 -92 110 -12 -37 -66 -97 -20 -24 101 -101 122 -103 104 -82 -47 107 -107 109 -108 -11 -25 113 -60 -9 -22 -45 123 -119 -120 -121 -10 -48 124 125 -118
right_child=3 11 8 10 5 6 25 39 16 12 24 30 36 40 -16 20 86 50 42 22 26 35 62 27 -26 72 63 28 -30 -31 -32 32 -34 -35 -36 61 56 -39 88 -41 -42 47 85 116 83 64 99 -49 53 -51 51 76 59 -55 -56 -57 -58 -59 112 75 -62 -63 -64 -65 95 66 -68 -69 -70 -71 -72 -73 -74 -75 -76 -77 -78 -79 -80 80 103 -83 -84 -85 -86 -87 -88 -89 89 -91 91 -93 -94 -95 -96 96 -98 -99 -100 100 -102 102 -104 -105 -106 106 108 -109 -110 -111 -112 -113 -114 -115 -116 -117 117 118 119 120 -122 -123 -124 -125 -126 -127
leaf_value=-0.41067095453356117 -0.42691639254888558 -0.41817448426564013 -0.31072826666865866 -0.24959429911145056 -0.4169587939630211 -0.28854976094518692 -0.36152564302630263 -0.32209683802416489 -0.37893981030787338 -0.4057094350950704 -0.29061080726800448 -0.42756958996894401 -0.36798756210796846 -0.42032167991046754 -0.25257823115354761 -0.25731767596205968 -0.28129969260236048 -0.42762444952919387 -0.36558361884173607 -0.39387036280069254 -0.30389710861060165 -0.31108617041186304 -0.25387243636473589 -0.34955840225044849 -0.229584876612416 -0.31641775282982104 -0.34631749391123723 -0.37338615163704447 -0.27893895637346877 -0.23188539915645551 -0.43045119218818256 -0.36982669192912976 -0.30621662465428912 -0.41725493755940257 -0.43039835242523627 -0.33082101379822088 -0.33568133460576921 -0.32557170427403626 -0.23670852690553768 -0.23039016563904643 -0.43015865986653823 -0.36808142228749596 -0.29729377190768319 -0.37803667956311376 -0.35739859195671614 -0.24368010963633385 -0.27697471963485831 -0.26349552622369082 -0.35282104336150855 -0.41980484611607538 -0.39496751735251523 -0.32625745399102696 -0.35854377160927214 -0.27433672206574877 -0.25877405860581459 -0.39180657876909353 -0.27330375608947832 -0.2632828270895583 -0.23263354139047726 -0.32108424287024773 -0.25068692863171277 -0.28316678877924961 -0.22661733355584329 -0.42008035071774952 -0.23498211959334001 -0.23566090845447801 -0.42897319859215832 -0.38221113465327228 -0.26554193150478983 -0.37650931013992983 -0.34772105595264213 -0.22683621988491537 -0.42598301318464982 -0.43151495713509103 -0.35573489315577644 -0.40391196379601946 -0.29803711965890034 -0.32302516630568967 -0.4147200087305743 -0.27602900076282111 -0.2360990745042123 -0.35365028664990467 -0.34157779593283155 -0.42760347434434676 -0.24940850333486198 -0.23663854776139592 -0.43036585860258147 -0.42415408065284393 -0.25948351835884309 -0.23614369386731521 -0.2478621512805434 -0.33866440797681674 -0.34251777880472234 -0.26439576384989494 -0.42474951901477631 -0.24933337375716663 -0.42437329357085157 -0.22612575946256472 -0.37144176110433502 -0.35175091662134045 -0.27647100950130138 -0.3011900790976248 -0.23174992156496954 -0.23253502049919739 -0.36735635880926065 -0.26763701975927612 -0.24536731138433082 -0.42801594402276444 -0.24016165972484227 -0.36271590588481112 -0.38789707299052595 -0.24998664089275857 -0.37964757526754528 -0.40536166259739409 -0.25070373458654549 -0.22959895896133303 -0.33059301546280184 -0.37226431116213915 -0.2495884465307272 -0.29617514627662228 -0.37561518585775472 -0.32398188226170554 -0.29483062792293263 -0.30502468047809728 -0.39582876849200066 -0.36833611888462731
leaf_weight=1353.5581822097301 2570.9379800409079 2986.8478528484702 7956.9911928996444 151.15235758572817 8407.4316993877292 479.6573272049427 913.8827990591526 326.90466843545437 2477.2868969589472 8582.7555207982659 2602.6820683442056 5851.9763521254063 9336.8409289941192 3522.1524407491088 1208.3838236629963 4778.7087985649705 155.22627493739128 213.3391225039959 62.871881846338511 714.08095040917397 225.52560144662857 2184.3628950193524 141.49605962634087 1524.9872528240085 18726.237884178758 497.08972573280334 515.01049116253853 1089.5735146254301 1577.7850859165192 4429.2508838176727 52066.168614387512 1369.5394465923309 1019.4250900745392 1958.433942258358 789.99310395121574 170.50917892158031 13145.744117535651 4347.9353995472193 8021.1633820980787 2634.8897445201874 11869.405148178339 325.95284816622734 2097.7869535647333 444.96704059839249 754.16947731375694 4915.7786837592721 3401.4069077856839 558.04914578795433 479.41301393508911 2607.1023453474045 390.63942651450634 897.91265159845352 1468.8144204691052 1048.8974608778954 2270.307499088347 273.43741080164909 492.78752568364143 1928.836501725018 33.323547631502151 260.78583370149136 318.27277082204819 191.64178216457367 771.69090881943703 550.17059516906738 6008.0824434310198 80.113516889512539 347.65429049730301 1708.3674429431558 947.01433968544006 674.28423906862736 232.44042809307575 672.97540402412415 1088.0511064529419 540.32105302810669 434.62020680308342 582.399866938591 1655.3319429755211 2619.8899053446949 176.42538499832153 4227.0145004764199 281.76243263483047 322.37364077568054 282.03377754986286 165.54973033815622 141.33447274565697 336.5250808596611 1002.9943076074123 267.86249351501465 2166.3540348038077 1993.1543581187725 182.57542602717876 367.85790923237801 310.88715960085392 3347.7659606076777 326.45360654592514 410.68061530590057 91.463935613632202 249.96355031430721 140.30011969804764 500.63040103763342 326.48236501216888 389.89290553331375 654.87090629339218 897.28601974248886 177.00550279021263 197.0158097743988 122.40833607316017 132.81286126375198 1165.6179712563753 180.79609581828117 4017.9368898645043 91.493348091840744 2299.1830902844667 3925.0544111430645 336.2443989738822 442.15764278173447 1871.0618755221367 326.67223078012466 391.13628286123276 546.21326920390129 278.02493119239807 289.79418149590492 8498.8797799795866 468.8210776746273 344.64413347840309 856.6752560287714
leaf_count=4352 2115 8900 86462 1377 51647 264 424 1436 25987 54644 27629 340 104591 14647 134 55483 78 16 652 3783 123 14722 73 2515 60666 91 97 1665 181 184 335 84 58 191 44 126 147055 41573 54041 241 851 159 17018 756 3077 33834 40784 63 360 130 167 525 9732 147 13751 99 114 16253 10 276 104 127 25 23 19199 618 45 1614 5183 2760 62 42 9 14 1814 62 589 23867 42 13714 90 37 333 298 61 60 65 62 3291 252 113 144 138 34880 71 3000 32 10 125 469 41 288 96 50 45 220 361 23 693 165 32884 32 24054 40887 831 78 5196 316 130 237 46 283 68559 308 135 1797
internal_value=-0.344854 -0.36462 -0.338638 -0.271069 -0.37205 -0.362256 -0.298857 -0.318463 -0.289481 -0.372175 -0.247793 -0.420543 -0.361278 -0.409517 -0.336098 -0.277409 -0.328393 -0.374547 -0.342923 -0.373923 -0.260596 -0.319252 -0.307809 -0.384632 -0.244109 -0.359332 -0.334389 -0.355636 -0.317517 -0.245563 -0.426412 -0.407017 -0.382932 -0.384079 -0.401283 -0.290243 -0.345584 -0.344087 -0.255201 -0.25768 -0.421074 -0.396586 -0.319378 -0.356742 -0.401064 -0.257377 -0.297089 -0.302046 -0.322363 -0.402604 -0.331511 -0.324914 -0.33274 -0.298948 -0.281087 -0.326058 -0.333422 -0.28147 -0.407586 -0.337441 -0.329619 -0.362051 -0.24948 -0.384446 -0.249308 -0.259133 -0.392584 -0.405101 -0.297289 -0.416457 -0.273459 -0.270852 -0.401802 -0.376384 -0.313476 -0.378289 -0.314873 -0.335786 -0.340839 -0.268706 -0.277514 -0.285033 -0.280126 -0.353956 -0.340271 -0.288865 -0.412995 -0.371701 -0.243576 -0.255292 -0.269377 -0.308413 -0.398648 -0.27585 -0.392546 -0.238545 -0.281318 -0.254141 -0.312307 -0.289213 -0.321994 -0.287121 -0.257591 -0.250795 -0.286688 -0.250625 -0.269654 -0.332284 -0.255613 -0.315181 -0.400034 -0.34387 -0.394983 -0.403878 -0.285801 -0.254586 -0.337749 -0.334216 -0.314765 -0.299297 -0.32298 -0.373176 -0.289721 -0.342694 -0.348452 -0.342452
internal_weight=283552 223644 152701 59908.3 90909.9 72072.4 9750 19732.6 61790.7 62322.4 40175.7 70943.1 47657.4 18837.5 2561.94 47159.3 14631.4 8028.86 14071.2 6073.84 25430.2 13205.3 1767.57 19153.9 39234.5 4567.66 1732.86 6242.27 2667.36 5182.35 62914.2 10848 4996.07 3574.91 941.145 6090.29 28503.6 7115.02 23697.3 5661.5 16275.6 4406.15 7997.31 14865.1 4306.28 20508.3 21729.2 884.002 2442.19 3976.64 3333.65 3120.31 5563 1528.31 5401.68 753.095 13638.5 3026.61 14665 5250.16 4406.98 688.605 1053.49 1065.18 13652.4 7142.2 427.768 4695.22 3131.38 3245.22 6855.86 6623.42 2125.46 1037.41 1097.77 843.186 2729.67 4088.7 1074.34 10966.2 6187.48 4831.42 4509.05 1061.05 895.504 2434.31 1426.08 423.089 12731.1 4709.94 2716.79 550.433 12911.6 5950.45 496.963 6510.23 502.145 312.835 281.796 13772.2 827.113 12945.1 1044.76 1356.05 458.768 6714.43 1798.65 329.829 1468.82 303.204 12600.7 1616.48 6257.56 3958.38 663.149 667.683 5528.22 5083.25 1542.05 1215.37 824.238 2767.08 11900.3 3541.2 3072.38 2727.74
internal_count=1198331 930768 917968 267563 491327 471121 1592 84673 426641 469529 182890 12800 352931 20206 4486 324613 102028 11853 64098 12317 127914 101823 4006 92250 181469 1045 321 4584 1846 547 947 612 272 2738 1421 33980 260681 67843 127593 20575 15720 14869 51781 113512 8311 120803 196699 222 931 214 1339 1323 34703 507 33656 363 147169 20334 116598 34041 33703 324 223 120 58190 35959 663 10514 19905 4875 62613 62551 114 105 4081 338 1156 33599 567 69752 14269 14084 14047 3436 3138 17078 205 140 57841 3800 3548 257 87666 62509 197 22231 3032 662 198 110237 510 109727 384 185 135 35296 1462 243 1219 526 87528 2547 64951 40897 2267 201 8921 8165 729 413 283 26270 109343 7436 7128 6993
is_linear=0
shrinkage=1


Tree=1
num_leaves=127
num_cat=0
split_feature=17 18 12 12 12 6 18 17 15 17 11 12 18 4 15 12 12 4 8 12 9 8 12 0 17 9 2 5 5 9 12 18 15 18 10 7 5 12 10 17 5 8 4 12 17 0 0 12 5 12 18 9 2 0 12 3 17 17 12 4 4 18 18 9 2 10 2 17 8 10 5 6 18 2 18 12 0 8 17 4 0 12 2 5 10 10 3 0 7 7 8 3 5 7 9 2 4 0 6 10 15 9 10 18 7 17 11 15 6 12 9 12 15 12 18 6 9 11 18 17 7 0 7 7 4 18
split_gain=148056 119250 90038.3 23145.9 12297.6 16354.3 11118.3 10416.8 10228.8 8852.41 7160.87 6372.32 5909.03 5865.74 5741.92 5586.87 3949.11 6275.66 3888.21 3874.56 3696.79 3601.01 3239.75 2860.74 2709.1 2614.21 2469.49 2453.83 2341.56 1857.1 2005.73 1650.51 1574.81 1436.86 2395.48 1665.49 1418.38 1611.09 1406.84 1384.81 1377.06 1358.2 3526.97 1352.7 1233.23 1124.6 941.801 938.21 869.689 864.733 826.188 825.476 797.505 794.097 791.229 835.202 755.396 744.44 646.808 644.192 611.622 567.888 562.436 560.937 730.638 631.508 557.608 555.134 552.262 534.004 526.225 503.287 492.185 514.034 487.735 468.461 464.742 460.905 458.251 516.465 449.451 442.087 438.359 435.056 425.596 420.958 420.801 414.494 401.717 796.097 399.542 1222.48 1749.73 577.03 444.74 380.625 378.893 371.939 351.495 348.098 343.368 328.15 332.941 323.292 394.205 315.929 304.801 290.148 286.26 283.92 339.046 305.651 282.258 281.902 276.81 265.942 550.279 263.199 254.57 408.681 249.624 321.363 249.36 297.612 249.296 285.412
threshold=4.0241699218750009 9.5000000000000018 140.50000000000003 -542.49999999999989 -24257.499999999996 37278.000000000007 6.5000000000000009 115.58288574218751 4109.0891113281259 -36.343017578124993 153936.00000000003 -8046.4999999999991 6.5000000000000009 36581.000000000007 3844.551147460938 6105.5000000000009 -13468.999999999998 33077.500000000007 37296.000000000007 -3229.4999999999995 31445.000000000004 37296.000000000007 5938.5000000000009 23926.500000000004 108.03491210937501 37230.500000000007 36714.500000000007 33546.000000000007 28699.500000000004 37230.500000000007 -6104.4999999999991 8.5000000000000018 3908.0400390625005 7.5000000000000009 151785.00000000003 37823.500000000007 33546.000000000007 -2138.4999999999995 151785.00000000003 63.996826171875007 33546.000000000007 33742.500000000007 33077.500000000007 14168.500000000002 -76.943725585937486 33388.500000000007 29503.500000000004 3919.5000000000005 37241.000000000007 1514.5000000000002 8.5000000000000018 37230.500000000007 29436.000000000004 26462.000000000004 13746.500000000002 31088.000000000004 -44.740112304687493 5.0820312500000009 -5054.4999999999991 718.50000000000011 7300.5000000000009 7.5000000000000009 9.5000000000000018 31445.000000000004 33117.500000000007 151785.00000000003 27328.500000000004 1.0000000180025095e-35 24633.500000000004 151785.00000000003 27699.000000000004 19959.500000000004 5.5000000000000009 18762.500000000004 7.5000000000000009 -5559.4999999999991 37314.500000000007 27654.500000000004 45.219116210937507 36581.000000000007 37314.500000000007 14600.500000000002 33117.500000000007 24204.500000000004 140252.00000000003 72879.500000000015 36884.500000000007 23926.500000000004 31710.500000000004 22747.500000000004 37296.000000000007 28359.500000000004 37241.000000000007 31710.500000000004 25918.500000000004 36714.500000000007 27232.000000000004 31079.000000000004 37278.000000000007 98985.500000000015 4037.564819335938 37230.500000000007 151785.00000000003 8.5000000000000018 37823.500000000007 -76.943725585937486 153936.00000000003 4088.5197753906255 31297.000000000004 -9105.4999999999982 27546.500000000004 -20265.499999999996 3979.2080078125005 11219.500000000002 8.5000000000000018 37278.000000000007 37230.500000000007 22135.500000000004 7.5000000000000009 65.271850585937514 37823.500000000007 21696.500000000004 37823.500000000007 31710.500000000004 26370.500000000004 7.5000000000000009
decision_type=10 2 2 2 2 2 2 10 8 8 2 2 2 2 10 2 2 2 2 2 2 2 2 2 10 2 2 2 2 2 2 2 10 2 2 2 2 2 2 10 2 2 2 2 10 2 2 2 2 2 2 2 2 2 2 2 10 10 2 2 2 2 2 2 2 2 2 10 2 2 2 2 2 2 2 2 2 2 10 2 2 2 2 2 2 2 2 2 2 2 2 2 2 2 2 2 2 2 2 2 10 2 2 2 2 10 2 10 2 2 2 2 8 2 2 2 2 2 2 10 2 2 2 2 2 2
left_child=1 2 4 7 12 9 28 16 18 58 19 23 13 67 20 49 17 48 22 120 -5 43 44 85 47 38 33 50 72 30 -12 56 52 35 -35 86 37 60 112 57 54 42 -14 70 66 62 87 76 99 -10 -23 61 -32 -44 80 -56 77 97 -6 -45 -13 108 109 64 75 -65 -4 -1 83 107 -17 -42 84 -74 -27 -59 78 81 79 -16 98 -24 -40 -57 -7 -11 -25 -19 89 -20 91 115 93 -93 -95 -33 -96 -18 100 -2 -21 102 -87 106 -105 -60 117 -41 -38 110 111 -9 -8 -58 -62 116 -49 -51 119 -101 -3 -122 123 -72 -114 -126
right_child=3 10 8 14 5 6 25 45 15 11 29 36 41 -15 24 21 39 46 88 40 -22 27 31 26 -26 74 -28 -29 -30 -31 32 95 -34 34 -36 -37 51 -39 82 69 71 -43 53 59 -46 -47 -48 90 -50 103 -52 -53 -54 -55 55 68 113 63 105 -61 114 -63 -64 65 -66 -67 -68 -69 -70 -71 122 -73 73 -75 -76 -77 -78 -79 -80 -81 -82 -83 -84 -85 -86 101 -88 -89 -90 -91 -92 92 -94 94 96 -97 -98 -99 -100 118 -102 -103 -104 104 -106 -107 -108 -109 -110 -111 -112 -113 124 -115 -116 -117 -118 -119 -120 -121 121 -123 -124 -125 125 -127
leaf_value=-0.054770521437786074 -0.052462726342251069 -0.069196287714512972 -0.032341308083458864 0.090787692021093117 -0.068032243574841417 -0.0061349732135865297 -0.062715874331366578 -0.036502253634423526 0.033062248103705054 -0.059469466307864954 -0.078428451300135177 -0.028014278584157074 -0.070510403915562556 0.10751733244145117 0.05312787508899406 0.078533084440355075 -0.021785728200339024 0.061181674713780831 0.063105009632571582 -0.011056450025463446 -0.082397464769136675 0.092858622350168285 0.032733433410173117 -0.0099450731921273509 0.10905901382799871 -0.0758638510635707 0.0697983377162711 -0.05834234078554254 0.10865303990667868 -0.081260128298625223 -0.020894865488160493 0.01153958279614592 0.011915632027667969 -0.025819502651033444 0.090291812170477381 -0.073958957683820228 0.027866937129271237 0.010218800009045022 0.086607984186474127 0.057296374893323371 0.01780507938379932 -0.080972633362989488 0.083707818028317976 -0.079535814964270549 0.019095541279244274 0.11065505306953115 0.098129477224988215 0.092981689064334891 -0.078897109453202857 0.065001490222534097 -0.0063985243030027367 0.083576664248527915 -0.069552497210298408 -0.013465121761939595 0.086219083211922232 0.097577745094503829 0.060602242736385148 -0.012162933884924941 -0.055287756904538146 0.098282959226961827 -0.0033473320766536164 -0.023054058943174367 -0.040671924871701945 0.025246623279465287 0.086576470388319601 -0.062912864711844263 0.035574295270321028 0.094585460863899073 -0.027622403161171268 0.10544219471356497 0.050873492308809436 -0.0661101019444129 0.06327521336731988 -0.056358103447738388 -0.027556659350018598 0.021881364093075732 0.10427958283040058 -0.018317549456337786 0.075468009409637743 -0.044034365802638385 0.062118314623652471 0.076288062369219881 0.025463250656793349 0.0066217687986080895 0.099438301884606103 -0.039332286637967645 0.097355333445272474 -0.037015945586447059 -0.079205982033448225 -0.075667212237986503 0.11054541641140614 0.093625023356292164 -0.054559523636115631 0.096582041022612891 0.064892405625613103 -0.06970048466385817 -0.020355580073303983 0.11227956076395683 -0.072225847240503072 -0.028798967085758936 0.087249218106366641 -0.070721727805700907 0.025739008350567638 -0.0046909928077294343 0.065635624504899168 -0.031859176858525851 0.082369771967949978 0.021269147756240156 0.10285964254999813 0.081141442348132309 0.091279328509002028 0.045369900802468652 -0.028869998838022545 0.093891265226118514 -0.036050060654521314 0.11115345390072257 0.016657685469397145 0.048688800410067963 -0.032840860473886721 0.071787002240292802 0.047451879328623103 -0.063419052746596427 0.075655588335129198 -0.0052403779254254056 0.077072594734719391 -0.0033350902893160951
leaf_weight=1540.7156029567122 1263.5444487519562 3326.8219892606139 2430.0864677242935 516.91627093032002 8296.2111580781639 159.78541994094849 244.30072911083698 150.86293966323137 8076.8010120503604 6268.9734168499708 5761.8278360664845 5132.0362408235669 3503.7896200567484 958.06081926822662 2598.2669579014182 10311.351198166609 64.360710252076387 196.89870503544807 168.79765190184116 1188.7204206511378 759.75117087364197 678.14775565266609 1537.0441459268332 1427.5224390029907 19052.239424832165 1119.7592590451241 858.61654332280159 738.9118772149086 4436.6520309150219 51232.898744851351 1321.7865641117096 293.43832328915596 1312.4417703151703 1373.6369997635484 655.27835822105408 1816.3729374408722 531.59557639062405 13024.849772810936 702.57125353813171 1611.698416877538 231.62527644634247 11680.170689664781 494.50686946511269 50.428460970520973 4176.6401350982487 2514.8684393763542 877.77882885932922 6991.3281913883984 2152.343347966671 3480.6091028787196 302.95802053809166 735.84589427709579 2326.7803229093552 364.63721185922623 695.18429805338383 242.79320701956749 1108.7672064378858 1670.4571230597794 3916.1198040954769 11674.61495519802 7686.8553365692496 519.44393675029278 121.54424527287483 323.80411992967129 320.85523995757103 541.81610214710236 344.22406943142414 63.922804966568947 432.02505099773407 425.6401481628418 1153.9871689677238 774.0590892136097 127.22297745943069 298.73206448554993 982.97767406702042 2554.1562605164945 782.62990835309029 279.93587683141232 3444.8520590178668 143.57995253801346 223.57467275857925 940.87966262176633 504.88139772415161 285.96299675107002 235.41428989171982 5487.4289458468556 96.613784432411194 234.14760327339172 996.85707175731659 263.1638063788414 2119.9964378774166 1179.5817409604788 318.83158153295517 226.67393290996552 214.30881762504578 281.81846138834953 329.33751606941223 255.57040835916996 218.25333321094513 218.23837214708328 94.990733124315739 827.84222745895386 203.13130331039429 499.99708965420723 330.02312994003296 2285.4671768993139 982.39477610588074 858.64599995315075 166.98816251754761 1691.2722640559077 282.94015202671289 457.09177364036441 478.59561160206795 1524.6666426882148 705.65038129687309 1998.6604995131493 245.08047753572464 8685.2701975405216 654.12028656899929 186.26216331124306 107.94128447771072 162.45995125174522 708.64145886898041 296.64874026179314 157.43076175451279 363.12865033745766
leaf_count=4410 9531 9397 25555 3506 51647 155 146 556 87637 68369 340 62163 14748 20 27568 76831 657 72 85 1169 18 187 11454 2493 61137 36 111 65 139 335 79 222 80 1740 54 164 443 146940 83 11861 94 851 87 14 39587 203 45 54498 228 41300 65 73 113 34 270 67 7304 10855 40897 50647 49636 300 187 313 110 51 294 56 111 41 1188 195 60 143 78 23014 70 343 35378 26 109 5247 67 71 50 18983 22 43 66 61 169 1951 41 147 84 55 52 11 89 308 67 280 34 466 41 24054 75 7277 33 13833 290 2574 346 8082 1093 58 73 69614 550 177 80 134 69 87 91 198
internal_value=0.00136746 -0.0174827 0.00727563 0.0706926 -0.0245905 -0.0152058 0.0447737 0.0260554 0.053519 -0.0246957 -0.0715547 -0.0142605 -0.0608169 0.0096797 0.0921023 0.0645968 0.00413383 -0.0278315 0.0164749 -0.0269829 -0.0122556 0.0803391 0.0251334 -0.0366769 0.0954632 -0.0124187 -0.00888509 0.010425 0.0943004 -0.0772982 -0.0583622 0.0521571 -0.0350447 -0.0214788 0.0117045 -0.0416323 0.000694718 -0.00233154 0.022667 0.025564 0.00455662 -0.0720782 -0.0482523 0.0853083 0.00193196 0.0865752 0.0684348 0.0828798 -0.0560002 0.046096 0.0622284 0.0417985 -0.051937 0.0424922 0.0198352 0.0445134 0.0607468 0.0113188 -0.0588946 0.097511 -0.0144184 0.0165071 0.0641427 0.00692813 0.0139549 -0.029938 -0.0239031 -0.0487624 0.0142733 0.0537392 0.0738278 -0.0467796 0.01671 -0.0205502 -0.0533076 0.00841901 0.0679308 0.0424282 0.0633157 0.0480238 -0.00385715 0.0492975 0.0610874 0.0485015 0.056833 -0.0502106 -0.00308073 0.0078662 -0.0617629 -0.0214071 0.0905211 0.0868212 0.0538914 0.0716458 0.037905 -0.0283032 0.013298 0.0853102 -0.013716 -0.0347509 -0.00371599 -0.0412976 -0.0370045 0.0536238 0.0233108 -0.046661 0.0555351 0.0447897 0.0459216 0.0690921 0.0461468 0.0250187 -0.0146561 0.0799057 -0.00610157 0.0949037 0.0904001 0.0533612 -0.0135761 0.0175688 -0.0654406 -0.0191304 0.0513299 0.0393993 -0.00284922 0.0210739
internal_weight=283242 222691 152751 60551 90433.7 71827.9 9811.45 19628.9 62317.1 62016.5 69940.1 47518.7 18605.8 2562.7 40922 47970.8 14410.3 5783.33 14346.3 7984.41 1276.67 25915.7 12917.5 19015.4 39645.4 4553.65 6228.04 1720.02 5257.81 61955.7 10722.8 5966.55 4961.01 5369.42 2028.92 3340.51 28503.3 26549.4 2450.91 8627 4387.19 16043.1 4362.93 24195.7 6950.95 5218.58 1308.83 20593.1 4474.51 22055.1 981.106 1953.87 3648.57 859.144 3381.5 1655.97 5391.29 5731.02 14497.8 11725 13524.5 1218.03 2703.71 5411.09 4545.47 865.62 2774.31 1604.64 960.781 2895.98 12470.6 1005.68 821.155 425.955 2102.74 4224.61 6969.33 2757.86 6186.7 2741.85 1725.54 2477.92 1207.45 528.756 395.2 12787.4 1524.14 431.046 1428.82 431.961 13623.8 11503.8 2268.73 1949.9 770.32 575.257 543.646 319.931 1501.96 2322.17 1283.71 6518.4 5690.56 13978.3 830.02 6201.59 13148.3 2470.34 698.584 2582.17 890.895 607.955 1243.46 2633.43 8392.51 9235.07 7236.41 12165.9 1058.62 404.501 3597.22 270.401 2159.28 1450.64 999.155 520.559
internal_count=1198331 930768 917968 267563 491327 471121 1592 82787 426641 469529 12800 352931 20206 4486 184776 328286 65144 10954 98355 11853 3524 129153 98143 92250 181252 1045 4584 317 547 947 612 32707 272 4473 1794 2679 260681 259832 931 54190 2242 15720 14869 128836 65436 17643 160 120115 10794 199133 252 849 192 121 1953 519 32430 35011 116598 50661 112892 776 17440 34343 33979 364 25849 4466 249 19179 78175 289 408 203 114 33869 63042 17044 62972 27594 1434 16701 150 138 205 87666 2515 115 212 146 57073 56904 2275 2234 283 277 136 668 1325 10566 1236 19297 19017 111496 507 64951 110989 19138 476 17253 3420 3130 781 15386 50729 54629 54571 110914 1035 485 9611 214 1344 1275 635 289
is_linear=0
shrinkage=0.05


Tree=2
num_leaves=127
num_cat=0
split_feature=17 18 12 12 12 6 18 17 17 17 12 14 11 12 8 12 12 16 6 8 1 8 0 17 0 3 12 12 2 8 10 3 10 10 14 12 1 14 12 10 3 11 0 10 12 0 17 1 10 2 8 0 1 6 12 2 16 1 3 0 12 10 2 2 12 17 11 12 3 17 10 1 13 14 11 18 14 1 16 2 10 1 18 2 0 8 18 18 17 16 12 10 1 0 2 11 2 8 3 3 2 8 8 12 12 17 16 2 16 17 1 11 18 3 18 6 16 16 10 11 2 1 0 17 14 15
split_gain=133117 109688 81043.3 20492.6 10698.5 15861.7 12797.1 10125.2 9276.08 7782.89 7214.5 7150.4 6727.82 6150.2 4421.97 3578.85 3395.79 3425.37 3580.61 2791.1 3389.89 2452.37 2451.76 2308.71 2212.82 2197.16 2426.06 2121.47 1942.46 1831.14 1639.75 1928.95 2257.95 1614.8 1539.38 4838.25 1472.72 1450.96 1424.96 1363.44 1293.16 1276.75 1127.44 1102.45 1038.5 950.311 914.696 916.493 878.318 868.281 870.817 1778.59 846.56 1348.47 823.357 719.486 752.916 645.309 704.736 627.146 610.554 586.79 561.614 553.766 552.006 541.683 710.407 510.996 501.893 478.054 477.077 460.251 455.831 2648.21 838.492 437.831 437.413 436.53 431.178 429.572 426.45 417.905 408.579 401.141 391.017 412.426 389.49 375.817 353.94 350.438 340.699 379.107 331.292 372.354 324.176 424.986 306.072 396.105 301.908 298.89 295.459 506.951 298.601 295.261 292.454 291.051 290.136 286.511 286.347 284.795 281.261 365.08 529.399 319.388 295.683 280.924 533.059 699.178 277.879 273.515 269.137 421.237 544.739 266.298 292.56 265.267
threshold=4.0241699218750009 9.5000000000000018 -165.49999999999997 -474.49999999999994 -28868.499999999996 37278.000000000007 6.5000000000000009 -36.343017578124993 108.03491210937501 -36.343017578124993 6105.5000000000009 12.09999990463257 153936.00000000003 -11515.499999999998 37296.000000000007 3805.5000000000005 -8294.4999999999982 4029.8728027343755 37278.000000000007 33742.500000000007 25713.000000000004 31527.500000000004 31079.000000000004 108.03491210937501 26462.000000000004 36884.500000000007 6809.5000000000009 -4144.4999999999991 33117.500000000007 24633.500000000004 96569.000000000015 36884.500000000007 151785.00000000003 151785.00000000003 43.633333206176765 -408.49999999999994 31179.000000000004 38.45000076293946 13346.500000000002 123629.00000000001 31088.000000000004 125324.00000000001 33388.500000000007 151785.00000000003 1514.5000000000002 23926.500000000004 63.996826171875007 36808.500000000007 151785.00000000003 28283.500000000004 33742.500000000007 29503.500000000004 33283.000000000007 23659.500000000004 3919.5000000000005 10139.500000000002 4024.2492675781255 29647.000000000004 36884.500000000007 37314.500000000007 -10552.499999999998 127621.50000000001 30927.500000000004 33117.500000000007 -9105.4999999999982 -101.36816406249999 141881.00000000003 20562.500000000004 16839.500000000004 -148.50402832031247 55297.500000000007 22936.500000000004 42.633333206176765 43.100000381469734 116285.50000000001 8.5000000000000018 45.549999237060554 36808.500000000007 3761.938842773438 33117.500000000007 151785.00000000003 22041.500000000004 8.5000000000000018 36714.500000000007 27272.000000000004 37296.000000000007 5.5000000000000009 5.5000000000000009 -76.943725585937486 4169.4038085937509 -1051.4999999999998 21601.000000000004 29647.000000000004 28246.000000000004 36714.500000000007 141881.00000000003 30927.500000000004 21479.500000000004 31088.000000000004 19786.500000000004 25773.500000000004 21852.500000000004 21146.500000000004 12218.500000000002 22376.500000000004 62.962158203125007 4118.8469238281259 25082.000000000004 4035.8801269531255 54.494995117187507 28445.000000000004 129303.00000000001 5.5000000000000009 27356.500000000004 8.5000000000000018 23208.500000000004 3889.035034179688 3886.4550781250005 133016.00000000003 25526.500000000004 30927.500000000004 36808.500000000007 20698.500000000004 12.325683593750002 34.549999237060554 4092.8762207031255
decision_type=10 2 2 2 2 2 2 8 10 8 2 8 2 2 2 2 2 10 2 2 2 2 2 10 2 2 2 2 2 2 2 2 2 2 8 2 2 10 2 2 2 2 2 2 2 2 10 2 2 2 2 2 2 2 2 2 8 2 2 2 2 2 2 2 2 10 2 2 2 10 2 2 10 10 2 2 10 2 10 2 2 2 2 2 2 2 2 2 10 8 2 2 2 2 2 2 2 2 2 2 2 2 2 2 2 10 10 2 10 10 2 2 2 2 2 2 10 10 2 2 2 2 2 10 10 10
left_child=1 2 4 8 19 9 22 25 16 60 37 39 15 30 38 61 17 33 83 20 -1 43 57 54 27 26 65 70 -16 -22 -11 32 75 71 35 -14 40 44 68 -5 -23 -39 64 89 -9 98 47 48 -18 50 -36 -52 59 -54 77 -17 -57 58 -7 63 -6 -3 -45 81 76 66 -4 -30 -12 106 -15 109 73 115 -75 -32 107 80 -62 -61 105 -26 92 108 85 -58 103 -40 -80 -8 91 -29 119 -94 95 -74 97 -89 118 -48 101 -86 -102 -71 -104 -13 -28 -10 -19 -2 111 -70 -113 114 -112 -56 117 -117 -31 -46 121 122 -33 124 -118 -73
right_child=3 12 7 11 5 6 21 10 42 13 14 23 34 24 28 55 46 18 -20 -21 29 36 -24 -25 52 -27 69 90 67 45 31 120 -34 -35 49 -37 -38 41 87 -41 -42 -43 -44 62 82 -47 99 -49 -50 -51 51 -53 53 -55 72 56 84 -59 -60 79 78 -63 -64 -65 -66 -67 -68 -69 110 86 -72 125 94 74 -76 -77 -78 -79 88 -81 -82 -83 -84 -85 100 -87 -88 96 -90 -91 -92 -93 93 -95 -96 -97 -98 -99 -100 -101 102 -103 104 -105 -106 -107 -108 -109 -110 -111 113 112 -114 -115 -116 116 123 -119 -120 -121 -122 -123 -124 -125 -126 -127
leaf_value=-0.06752781203486892 -0.046364028543987301 -0.067517917886582374 -0.034569371062381359 0.081118643785119085 -0.071508107150294639 -0.011632369741821219 -0.054741556607567757 0.029852337110859578 0.026974836156599843 -0.061254765632730551 0.077824390589996212 0.053487511718604823 -0.080461909803140552 -0.038416369589432731 0.065639586711812747 -0.076491491053382599 0.017642137059311738 0.033496203057430375 0.094920390744125199 -0.077679201074639367 -0.070572968678068865 -0.057796731832662873 0.10132073591151325 0.10255116047530721 -0.0093866787991678888 -0.066800620922594867 -0.036784934166345443 -0.016630360888682104 -0.0021505394999449447 -0.037699422609863628 -0.017831580388057842 -0.054109550105630899 0.057141088218547256 -0.07333351670147728 -0.071111889896639496 0.054438249524433269 -0.068111387915345475 0.02416870741216233 0.097329602946173099 -0.079053967007898046 0.075924180440644903 -0.067924818859340472 0.10183894617455827 0.085041044322627643 0.059791346211966662 0.091721861269945359 0.044630194826311614 -0.045482413048404599 0.097390779681152173 -0.078344292339452878 -0.080606700954044319 0.032838933439059234 0.09954537583614366 0.00015952074876692175 0.090474356336008005 -0.045848890166211013 0.018753802034788193 -0.04703315691508992 0.10686418018418911 0.006763650442330728 0.088879166376505545 -0.029933820352385038 0.013198056155685079 0.064263386629429167 0.073420526843983633 0.0040729819081150474 0.067747115525364651 -0.065846965003410279 0.059224210872161231 0.043873629028485503 -0.017739888411963771 0.017172658820602121 0.089750926362317421 0.098024711717605129 -0.079127104698473921 -0.054781989753337562 -0.0098046766013236576 -0.0027185681325838113 -0.059236846906729174 -0.063710969142787385 0.10085797353645853 0.036817283935874849 0.017798822996110204 0.052720860401327764 0.082799939853998472 -0.065223665148128662 0.023404871308322008 0.088150383147599098 -0.038129999937173996 0.0041683487181705366 0.011370047839678599 0.0037178984918227222 0.045064910005454796 0.096951695129095461 0.1060446953592914 0.029291426536274218 0.091153087246296671 0.046063199516826109 -0.07592319315756689 0.085965366965095547 0.023188804850642342 -0.028679416441230211 0.045461808261313991 0.083574540267621372 0.10663671026149663 0.076375586994613068 0.044201421551077098 0.093304292084689738 -0.046083633742473255 -0.0078278062676546654 0.06193942560476532 -0.020852616960466305 0.051031418044188981 0.08635755497065109 -0.012713914979451513 0.068520601517712373 0.070505959383759351 -0.079377764782456728 0.0831819382172439 0.04419145074539392 -0.074303127194629948 -0.080345850602316304 0.064055554985231286 0.087532648847514244 -0.067361135495916755 -0.083423216818896292
leaf_weight=2036.2949837855995 1232.5749221630394 2995.8968703225255 2273.5956620685756 160.17813955247402 5916.2489685378969 268.75537040829659 357.05332463979721 11004.546360112727 394.59967210143805 7010.0584817752242 6380.1869936659932 3695.1852071434259 2275.7497523725033 4988.6292753219604 773.65311780571938 207.10552379488945 3437.6366374641657 126.542490452528 1131.6368750631809 10558.960032999516 330.07348890602589 337.33369639515877 5060.3057353198528 19223.386209242046 1071.347379617393 1037.2793907523155 257.08138274401426 3697.7780026085675 611.69542714953423 88.469449922442436 3442.0168778300285 226.68022724986076 984.18933939933777 2289.1391445398331 2615.922815322876 937.84859704971313 2283.6779935061932 1140.3698211759329 8706.8517185524106 757.89297449588776 387.30300888419151 560.47776910662651 2704.5345225706697 661.23668467998505 4346.6383479945362 807.18263438344002 1350.2480032369494 512.55399745702744 382.97192430496216 53649.682615309954 667.86314916610718 713.71609437465668 830.63151627779007 579.02920660376549 5036.0770823583007 385.37214663624763 900.87619571387768 320.81432192027569 233.9581139087677 500.87335208058357 54.136202454566956 1594.0718201696873 462.69153606891632 671.49778923392296 1969.8094175942242 3294.2698300294578 182.37502318620682 648.3878002166748 3056.855207324028 856.31044654920697 6338.7953103072941 930.0093197375536 2995.2992042601109 82.121750146150589 340.34811788797379 1045.223216176033 434.89112474024296 233.2578552365303 5450.628028806299 379.10654473304749 811.90086078643799 899.27598959207535 916.42085616290569 138.47986304759979 153.52969038486481 173.48647332191467 762.73782801628113 1079.1725232452154 3141.2243306487799 855.07525654137135 5691.4211641475558 6004.2283832132816 600.35180403292179 825.80768489837646 3352.8199868351221 323.52759176492691 2807.6243007034063 1170.1148652881384 114.09872275590897 650.6815048083663 434.14169406890869 298.88615292310715 409.71401134133339 1046.6226430758834 377.83224326372147 2246.1707713119686 192.50448932871222 277.97558704018593 1005.4749177321792 785.58292679861188 701.63933818042278 393.52108418941498 729.80205684900284 1454.4245449751616 162.99639166891575 201.43107476830482 103.30105441063643 131.02850520610809 100.58870410919189 8040.8843417391181 1825.9894304275513 323.3965311050415 169.61853897571564 1337.3675478622317 60.000682607293129 69.495660036802292
leaf_count=8505 7358 9795 24028 1394 30353 243 256 121013 2046 59290 64144 38822 144 62454 236 16 29565 575 117 624 173 105 188 60666 2016 276 964 44940 99 107 4189 90 96 74 170 55 100 12603 56716 27 59 105 241 62 51179 68 14007 95 34 457 50 71 95 127 33834 167 525 100 34 322 116 719 66 216 16253 33233 43 41 13999 7604 31063 1050 21981 618 45 1225 1814 62 51968 52 41 982 546 47 105 42 1017 2001 29119 542 68276 53124 727 188 184 66 938 1102 30 847 121 154 152 7368 57 23688 1149 221 5530 4749 897 103 214 445 71 220 113 23 12 63430 48 7 47 1068 38 50
internal_value=0.00128325 -0.0167324 0.0069077 0.0667347 -0.0249314 -0.0171925 0.0374354 0.0486293 0.0249811 -0.0272086 0.0568553 0.0868779 -0.0691453 -0.0172522 0.0743919 -0.0258244 0.00303348 -0.0192523 0.0302767 -0.0648852 -0.0260163 -0.0185713 0.0883024 0.0900311 -0.00474656 0.00201624 0.0100751 -0.0104264 0.00332233 0.0326707 -0.0435911 -0.02814 -0.0114051 -0.0416741 -0.07479 -0.0410867 -0.0484115 0.038523 0.0798163 -0.051045 0.0136735 -0.00619788 0.0782775 0.0198584 0.041479 0.0634025 0.030156 0.0172358 0.0256607 -0.076668 -0.0541549 -0.0220163 0.0260224 0.0587545 0.0785382 0.0135412 0.0195153 0.00827718 0.0436076 0.0129075 -0.0591205 -0.0544756 0.0555077 0.0250828 0.0575419 -0.00917657 -0.0269451 -0.0349563 0.067848 0.0456037 -0.0268489 -0.0176399 0.0855575 0.0768793 -0.0445295 -0.0264499 0.029254 0.0644985 -0.0506361 -0.0236299 0.066821 0.0117035 0.0501621 -0.0273271 0.0286954 0.00514055 0.0536448 0.0910095 -0.051526 -0.0132113 0.00165891 -0.00403794 0.0523073 0.07516 0.0950285 0.0838693 0.0801097 0.0662884 -0.0120374 0.0581107 0.0437968 0.00923984 0.0565718 0.0657444 0.0749154 0.0621527 -0.00207582 0.0544941 -0.0371617 -0.0313773 0.0580431 0.0502648 0.0258485 0.0720339 0.047862 0.0843523 0.0674905 0.0101529 0.0266887 0.0496701 -0.0640875 -0.0380945 -0.00348758 0.0801745 0.0197184 0.0100968
internal_weight=282229 221313 152521 60916.1 86505.9 72470.2 11228.2 66015.2 19824.8 61242 56112.4 41091.3 68791.7 46679.8 28676.9 7930.91 14043 7708.94 2402.13 14035.7 3476.71 5344.37 5883.83 40173.2 31652.6 9902.78 8865.5 26720.9 2033.74 1440.41 15027.2 8017.11 5471.43 5306.8 60860.8 3213.6 3008.31 27435.5 26643.2 918.071 724.637 1700.85 5781.81 2336.06 25734.6 1110.34 6334.09 4333.16 3820.61 57647.2 3997.5 1381.58 4931.76 1409.66 20949.8 3340.94 3133.84 823.528 502.713 3522.1 14562.2 4589.97 1123.93 2642.12 3077.28 5750.24 2455.97 1260.08 12879.4 3115.26 11327.4 3017.66 13963.3 7291.68 422.47 4487.24 1107.47 6986.51 8645.99 879.98 6753.26 1970.62 14730.1 1270.5 2748.47 1074.36 2665.67 13763.8 8591.85 1212.13 15393.4 9702.01 13813.7 1426.16 6671.65 3318.83 5056.91 2249.29 303.157 2000.93 1674.1 452.416 1221.69 1902.93 787.546 5941.36 449.586 672.575 1132.02 2018.16 6499.24 4180.18 1123.32 2319.06 864.636 6869.21 1833.13 332.46 189.058 12387.5 2545.68 719.695 396.299 1500.67 163.302 999.505
internal_count=1198331 930768 917968 267563 451489 441970 1755 466479 84673 440215 390797 182890 12800 328659 141006 11853 64098 19550 6269 9519 8895 1190 565 181469 263667 75682 75406 259857 376 390 64992 5702 5510 13281 947 199 264 249791 140630 1421 164 12708 20575 926 237083 217 44548 29694 29599 748 291 121 3810 222 120803 1339 1323 377 277 3588 111556 10514 128 3214 20334 57304 24071 140 79873 18102 93517 13207 58190 35959 663 5414 4081 62613 81203 374 62551 2998 116070 6152 1156 567 15989 60757 81087 798 166340 98064 115524 915 22231 22047 4041 3103 149 14854 589 259 330 14972 209 62510 2113 2267 6105 12107 15729 14316 317 1413 968 35296 1462 243 119 114609 192 144 137 1219 151 1100
is_linear=0
shrinkage=0.05


Tree=3
num_leaves=127
num_cat=0
split_feature=9 18 16 15 18 5 16 6 15 16 16 5 15 16 18 10 15 16 0 10 18 1 10 11 16 10 10 10 7 1 18 15 6 2 16 18 15 16 1 6 5 15 0 18 6 15 10 11 18 6 6 18 18 10 11 15 15 16 3 3 18 10 11 16 15 10 16 11 10 0 13 10 5 16 5 7 0 7 18 10 11 10 11 11 11 0 11 3 18 15 3 2 11 1 2 3 2 11 15 10 11 15 7 1 11 6 7 1 18 5 11 7 6 15 9 0 1 5 10 10 11 7 3 9 18 10
split_gain=95157.5 34180 43737.5 31409.7 17664.1 14533.6 13506 13466.1 8320.93 8261.23 7698.72 7417.65 6764.09 5038.27 4968.05 7521.82 4474.35 3758.19 3695.54 3581.28 8990.48 3566.68 3230.39 3099.43 2905.11 2740.24 2488.99 2471.82 2357.78 2307.49 1987.64 1897.1 1893.16 1816.92 1629.62 1505.45 1462.98 1453.27 1422.85 1401.33 1397.79 3271.87 2019.32 1334.62 1245.14 1208.39 1180.11 1841.18 1101.7 977.231 973.292 961.161 893.254 878.376 861.344 860.887 844.818 833.122 806.395 798.883 871.351 784.945 1382.44 781.396 769.454 767.393 751.411 748.787 1256.94 716.363 711.083 710.49 709.358 1157.55 708.393 706.662 822.591 1198.05 700.618 698.394 654.738 651.188 977.145 899.976 650.752 624.917 607.416 588.839 574.731 564.415 561.734 552.852 548.697 542.976 537.005 533.574 533.019 546.429 520.646 520.534 504.785 495.282 480.156 461.747 460.342 447.4 529.625 438.471 432.581 430.662 429.851 421.977 416.835 644.02 412.63 411.339 403.38 396.839 503.224 390.376 412.778 388.778 360.019 359.97 357.243 785.874
threshold=37230.500000000007 6.5000000000000009 4032.9108886718755 4087.1242675781255 7.5000000000000009 37241.000000000007 4041.2861328125005 23659.500000000004 3960.0051269531255 4038.2048339843755 3943.321899414063 28699.500000000004 3991.5769042968755 3929.906127929688 9.5000000000000018 117052.00000000001 4042.2900390625005 3991.1179199218755 37314.500000000007 80880.500000000015 3.5000000000000004 33283.000000000007 151785.00000000003 86438.000000000015 4131.0498046875009 39483.500000000007 97758.500000000015 151785.00000000003 31710.500000000004 36808.500000000007 1.5000000000000002 4021.711059570313 29835.500000000004 36714.500000000007 3940.7348632812505 1.5000000000000002 3939.2170410156255 3988.1689453125005 27420.500000000004 37278.000000000007 33546.000000000007 3963.4621582031255 29503.500000000004 6.5000000000000009 37278.000000000007 3943.1169433593755 151785.00000000003 134810.00000000003 8.5000000000000018 22332.500000000004 31297.000000000004 4.5000000000000009 7.5000000000000009 24361.500000000004 129303.00000000001 3933.635864257813 4226.4819335937509 4087.9179687500005 36884.500000000007 25037.500000000004 8.5000000000000018 60857.500000000007 74385.500000000015 4128.7570800781259 4046.7919921875005 133016.00000000003 3802.846801757813 101635.00000000001 117052.00000000001 31079.000000000004 69.325000762939467 91001.500000000015 37241.000000000007 3980.382934570313 27699.000000000004 31710.500000000004 31079.000000000004 18553.500000000004 8.5000000000000018 151785.00000000003 25526.500000000004 59395.500000000007 62163.000000000007 49672.500000000007 97758.500000000015 31079.000000000004 103070.50000000001 29481.500000000004 5.5000000000000009 4140.3232421875009 31088.000000000004 29436.000000000004 21544.500000000004 31179.000000000004 29436.000000000004 33372.000000000007 36714.500000000007 153936.00000000003 3909.869018554688 19249.500000000004 141881.00000000003 4043.118774414063 37823.500000000007 33283.000000000007 17021.500000000004 33576.500000000007 31710.500000000004 33283.000000000007 8.5000000000000018 33546.000000000007 153936.00000000003 23219.500000000004 37278.000000000007 4008.244750976563 28572.500000000004 23439.500000000004 29647.000000000004 18936.500000000004 140252.00000000003 14824.500000000002 13677.500000000002 37823.500000000007 28359.500000000004 33626.500000000007 4.5000000000000009 73482.000000000015
decision_type=2 2 8 10 2 2 10 2 10 10 8 2 10 10 2 2 8 10 2 2 2 2 2 2 10 2 2 2 2 2 2 10 2 2 10 2 10 10 2 2 2 8 2 2 2 10 2 2 2 2 2 2 2 2 2 10 10 10 2 2 2 2 2 10 10 2 10 2 2 2 10 2 2 10 2 2 2 2 2 2 2 2 2 2 2 2 2 2 2 10 2 2 2 2 2 2 2 2 10 2 2 10 2 2 2 2 2 2 2 2 2 2 2 10 2 2 2 2 2 2 2 2 2 2 2 2
left_child=3 5 8 4 6 16 12 21 -3 79 22 28 13 19 15 71 51 27 34 20 25 101 45 -21 33 30 84 78 38 54 53 55 49 43 -10 -27 124 -14 69 50 42 98 87 -11 65 66 47 67 52 85 94 -2 -30 92 -19 -8 88 70 59 60 -13 -22 -63 -33 109 -44 -6 -28 -69 -9 -57 -12 73 -38 -34 76 -43 -78 116 -5 -55 83 -83 -37 -25 -29 -73 -16 -26 -45 -67 -76 99 -53 115 -90 -48 -98 -42 104 -80 111 122 -66 119 106 -36 -79 -68 -39 -46 -4 113 -31 -93 -18 -17 -49 -119 120 -1 -91 -23 -51 125 -15
right_child=1 2 7 9 10 -7 31 11 18 24 14 58 37 36 40 17 39 29 -20 23 61 102 -24 26 56 35 46 32 48 112 -32 63 74 -35 105 81 72 64 -40 -41 41 75 44 89 110 -47 96 117 -50 123 -52 93 -54 80 -56 57 -58 -59 -60 -61 -62 62 -64 -65 103 90 108 68 -70 -71 -72 86 -74 -75 91 -77 77 107 100 -81 -82 82 -84 -85 -86 -87 -88 -89 95 121 -92 114 -94 -95 -96 -97 97 -99 -100 -101 -102 -103 -104 -105 -106 -107 -108 -109 -110 -111 -112 -113 -114 -115 -116 -117 -118 118 -120 -121 -122 -123 -124 -125 -126 -127
leaf_value=0.024029278312365523 0.077496829858055769 -0.067248822210811465 0.019756003369536979 0.078792543159743628 0.049615640837269451 -0.064903068125314073 -0.066657648790789198 -0.03953463417116259 0.10120550796058447 0.053054067761512051 -0.06437412055402271 0.016216471529283259 0.075955750824767118 -0.032055320342108722 -0.057488079657064872 0.009951460014035983 -0.045403832778836917 0.01717179674697435 0.095302653781775742 0.077209080738037339 -0.041281407673732895 -0.01198046166721632 0.090453798891486872 0.014798405129774067 0.010402244454745822 0.071234792937012237 0.068296179608422755 0.0018867219787540173 0.012437831546411218 -0.073845122023402529 -0.00712210942624498 0.010492017540931091 0.092533965135786433 0.092325193125720864 -0.03278139804767316 0.043362484913767069 0.038990926078984314 0.030969632646593082 -0.062699875649401868 0.09878174332832175 0.094285028409731839 -0.064907421080194247 -0.034278603599413954 -0.033281899996527614 0.0034016809993714574 0.045698560859002285 0.079819053397349252 0.067624412588483826 -0.0064380396175031801 -0.0034558648074949731 -0.034111127211757075 0.0219945491763224 0.10595932005365299 0.067221370303248387 -0.060658282767161925 -0.01873085739991712 0.064175676829746356 -0.04937994904795636 -0.076686601840678992 -0.066942077400137287 -0.062318140636550459 0.026832237217359653 -0.031507752937500876 -0.029369538423206928 0.051918626532728343 0.067480400227230994 -0.0035133407401491765 0.015268556986995644 0.053583301454384585 0.067255059531872136 0.071717817524379252 0.014176536651722998 -0.049853748658830882 -0.0086416379317863414 0.0075184249307926956 -0.071936465480988115 -0.079693313933742918 -0.0085382406898352036 0.0088014824580384416 0.1004112055777716 0.031256121285869486 0.075128122849533782 0.027303724338726583 -0.0016440719245795839 -0.028070452204716125 0.10542706689128203 -0.041248291118553319 -0.020458715786321371 -0.042972088589922477 0.0060275134366168095 0.011079808119330417 0.032426391315849387 -0.0078703452904740952 -0.06815726762525004 0.087436944798255062 0.056910663981155234 0.08490411474336286 0.016322081526775948 0.0088208234795074253 0.049288004348576796 -0.034042706152795803 0.052942226376900693 0.10117444401618643 0.10154852676158249 -0.0044307263885923929 -0.066061892273478875 0.084671295893415197 0.070875269077609979 -0.070355047511328303 -0.055802973667607794 -0.060981887644037086 -0.049807704471252434 0.08489730452422023 0.058536057701658407 0.090154904059111043 0.050164146468880559 0.047508591099429336 -0.014220674965773564 0.023103790306758992 0.044949604302250992 -0.0074184823897451542 0.1025475826562339 0.083516984504511005 -0.070203040595094288 -0.050763372702829324 0.034863138484499651
leaf_weight=10818.432921804488 193.46289220452309 1143.7554194033146 284.00219937413931 5822.117474719882 260.77259382978082 2495.4362672269344 2059.1239891089499 265.80369511246681 298.97418484091759 4406.170569576323 3341.9895001091063 653.84107035398483 7761.5923467054963 2568.3411463312805 3487.0599622167647 2050.1658768057823 144.11392061412334 414.21656374633312 5685.2825185060501 5252.0510924383998 4239.3500800840557 188.51094827055931 2220.1941879987717 2082.9839930459857 2249.4513602219522 4727.1879988647997 2766.2188622951508 285.76031792163849 434.83896338939667 141.21917927265167 5096.9212216101587 4108.5511236339808 2027.8400406837463 2378.372177273035 312.67363385856152 2438.3340325951576 2374.1723755374551 3171.1513343453407 1859.4253161847591 5531.6037405729294 330.75734196603298 1447.98852507025 423.79438932240009 742.30458900332451 399.24589246511459 1072.1269607283175 2551.2585644423962 243.79846689105034 967.90897673368454 522.99806106090546 295.57941448688507 223.10803483426571 618.94822978973389 2059.709744349122 2485.8200046420097 3105.5978088006377 504.97267616912723 2803.9040478654206 53947.330369830132 7873.437226742506 766.05808764696121 1554.2234115637839 2924.6958114877343 1753.2108794488013 2129.8981061987579 924.38071098923683 388.09713551774621 3528.0634744614363 5447.5955544859171 380.88899177312851 232.64469560980797 582.86661507189274 483.93020801246166 2753.9147351756692 547.89134448766708 6125.7698908150196 368.67519730329514 342.42724999785423 1453.114716693759 10581.166190683842 3290.9528715349734 2045.43707883358 2238.8467790782452 2038.8979181572795 1537.9926689937711 296.67533850669861 3232.9096977412701 1553.9237623810768 1147.8974471203983 337.74120717868209 845.58907681703568 513.06745636463165 1407.7001794874668 657.72326329350471 992.92218935489655 150.40291004627943 445.05440324544907 835.03513121604919 385.8149082660675 1898.403004437685 1303.0238211452961 190.84753786027431 1279.1812492609024 602.85774892568588 1535.8108186945319 483.76518440246582 137.29456931352615 351.39297026395798 643.4379916600883 148.80888572335243 737.00231248140335 929.30481816828251 378.62544453144073 258.53221663832664 786.98797130584717 502.61180979013443 1097.7391735315323 2092.6608739197254 1586.9739210605621 1983.7256873175502 1154.1250183060765 150.1314962208271 205.44355037808418 328.39028894901276 1443.4174490943551 528.14918260276318
leaf_count=145427 68 224 322 49099 404 131 14641 210 75 43661 24051 80 65332 32188 9034 1576 151 529 107 32591 50651 104 177 10353 24522 56626 9667 62 73 63 61897 37338 166 284 170 33386 20407 28468 265 98 53 589 526 1682 117 1662 511 148 128 126 111 165 56 24002 799 25933 4461 27972 196 209 96 13952 21384 16847 19013 287 1055 8966 6559 137 1355 2261 118 26649 100 344 38 93 1308 168 38740 20417 19219 24264 6150 41 7939 772 3808 1135 182 74 16851 87 231 104 145 102 61 22227 502 120 68 162 18382 64 39 19 1123 100 63 379 48 85 59 299 686 1340 525 23284 13817 33 45 36 7030 2620
internal_value=0.00120819 -0.0411847 -0.052712 0.021205 0.012703 0.0412283 0.0228257 -0.0652693 0.0576343 0.0696424 -0.0141908 -0.0699146 0.0290563 0.0240541 -0.0212632 -0.0054193 0.072241 0.0148266 0.0782888 0.0282736 0.0204087 0.0370169 0.0471554 0.0425366 0.0382355 0.0298489 0.0346562 0.0292122 -0.00808935 -0.0290229 0.0212488 -0.0231562 0.0539632 0.0556788 -0.000189304 0.0484921 -0.00912192 0.0616315 -0.0404897 0.0859665 -0.0409726 -0.0542573 -0.0261244 0.0402006 0.00408899 0.00647529 0.0417262 0.0356378 0.0320722 0.0048675 0.0493012 -0.0231447 0.0674214 0.027237 -0.0495379 -0.0386804 0.00373281 -0.029291 -0.0743407 -0.0607159 -0.0261647 -0.0258622 -0.0112607 -0.00143241 0.0432527 0.0260911 -0.0260715 0.0455457 0.0385269 0.0233614 -0.0124063 -0.0475386 0.00794895 0.0134133 0.0721187 -0.0627763 -0.0404032 -0.00697413 0.00694703 0.0927435 0.0451117 0.0362143 0.0501498 0.0228699 -0.00341128 0.054726 -0.0327792 -0.0460808 -0.00488463 -0.00583884 0.0405598 0.0496754 0.0221469 -0.0453178 0.0643527 -0.0313623 0.0666032 0.0402179 0.048353 0.0245772 -0.0114572 -0.0217336 0.0863089 0.0629022 0.0215459 -0.032734 0.00315304 0.0317185 -0.0452396 0.0270631 -0.0383718 -0.0335178 0.0473699 0.01169 0.0674186 0.0288232 0.0230609 0.0059803 0.00187738 0.0244049 0.020997 0.0358886 0.0378933 -0.029259 -0.0302223 -0.0206323
internal_weight=280625 89944.1 78907.5 190681 162210 11036.6 117852 70845.8 8061.75 28470.7 44358.3 67768.5 103789 89974.4 39773.7 22049.8 8541.13 14892.1 6917.99 79822.4 51452.8 3077.29 4584.63 28369.7 12067.4 42734.5 23117.6 11213.7 4527.81 3678.41 29245.8 14063 5309.61 8014.72 1232.71 13488.7 10151.9 13814.3 2506.12 7466.83 17723.8 9352.83 8371 5636.35 3330.01 2364.43 19496.7 15665.3 2021.7 1433.82 1935.23 1074.29 1053.79 24148.9 2900.04 8201.27 4052.72 6142.15 63240.7 9293.34 1419.9 8718.27 4478.92 5861.76 6052.72 2193.76 1292.31 11741.9 8975.66 646.693 3338.24 7157.77 5612.02 5128.09 3875.79 8636.25 2510.48 1062.5 5904.04 16403.3 5350.66 8761.52 4284.28 4477.23 3620.98 582.436 3815.78 5040.98 3547.75 1230.18 1769.97 1847.95 18798.2 880.831 1639.65 1298.3 3831.35 1280.09 716.572 17390.5 2756.14 1404.15 1673.14 2732.76 15492.1 933.733 449.968 693.82 1031.54 3319.96 1136.25 1213.31 778.377 399.751 1300.06 646.726 3147.91 3923.43 3679.63 13956.3 11972.6 487.873 393.954 851.388 4539.91 3096.49
internal_count=1198331 4508 3167 1193823 1064866 1341 1007756 2488 679 128957 57110 1450 883670 770595 52689 40511 1210 6260 455 681583 604526 1038 4421 77057 79690 518539 44466 4736 869 1524 364627 124086 664 46795 348 153912 89012 113075 612 890 12178 1197 10981 46511 1175 4244 27963 27205 257 265 792 320 129 302730 1328 69901 32895 55260 581 385 176 85987 35336 54185 47743 995 2582 25192 15525 347 27288 34251 47174 47056 399 1083 739 150 4072 49267 62742 97286 39636 57650 16503 103 10200 9806 28434 2850 469 233 239988 252 681 3912 758 247 114 223137 1810 821 217 19175 200910 273 209 112 2178 28568 180 701 196 148 133 450 2262 2013 1865 182528 159244 1168 149 162 41838 34808
is_linear=0
shrinkage=0.05


Tree=4
num_leaves=127
num_cat=0
split_feature=9 12 8 12 12 16 15 15 12 5 15 11 6 3 6 15 4 3 6 16 15 16 16 7 5 5 3 15 6 16 15 15 9 12 10 12 13 12 5 12 15 6 10 8 12 11 15 16 0 15 8 10 9 7 16 15 4 5 8 0 7 3 13 11 15 11 16 7 10 15 5 10 7 16 0 8 15 6 15 16 16 16 16 7 12 0 15 14 15 9 7 4 4 6 3 5 16 5 7 11 5 6 12 15 16 7 5 0 5 14 15 12 15 4 11 6 13 3 0 8 16 3 0 0 6 6
split_gain=86940.2 101921 49633.7 12605.5 10094.6 9543.5 8647.18 13060.8 5562.73 6783.18 5535.37 7340.06 5366.27 4963.77 3762.59 3088.97 3593.28 3061.69 2823.4 2789.46 2733.44 4115.57 4045.87 2660.88 2639.81 2624.66 2551.27 2364.06 2624.81 2007.03 3695.48 1947.64 1928.02 2194.68 1347.07 1310.5 1273.69 1270.94 1214.5 1118.27 1115.5 1069.34 1062.55 1190.47 1061.77 1038.44 1023.53 975.591 933.894 923.345 904.894 837.26 1074.75 836.781 809.372 808.435 778.626 762.819 654.477 1284.51 650.317 631.713 597.794 591.456 585.798 573.437 568.394 564.898 1024.37 564.259 562.738 625.112 562.502 562.188 556.251 541.867 535.826 699.7 516.865 507.699 500.874 462.649 460.102 423.556 423.091 422.177 416.597 599.764 508.359 782.573 632.574 1000.58 556.348 546.555 542.517 397.965 394.8 417.017 383.885 782.883 382.537 376.507 420.483 372.516 366.207 364.612 362.376 574.726 393.685 358.057 357.033 343.079 337.944 337.037 327.704 321.339 314.946 311.418 299.707 298.689 290.448 280.712 279.681 454.187 269.543 791.335
threshold=37230.500000000007 -408.49999999999994 37296.000000000007 5773.5000000000009 -13468.999999999998 3984.055053710938 4036.5449218750005 4109.0891113281259 -24257.499999999996 33546.000000000007 4070.3698730468755 125324.00000000001 37278.000000000007 36884.500000000007 24195.500000000004 4049.8332519531255 33077.500000000007 29481.500000000004 37278.000000000007 3988.1689453125005 4037.564819335938 4014.0869140625005 3987.024047851563 37823.500000000007 33546.000000000007 31472.500000000004 21321.000000000004 3818.0119628906255 23659.500000000004 3992.2631835937505 4039.4628906250005 3939.2170410156255 21756.500000000004 -5378.4999999999991 151785.00000000003 -10870.499999999998 43.225000381469734 11219.500000000002 29963.500000000004 928.50000000000011 4127.5810546875009 37278.000000000007 95438.500000000015 33742.500000000007 -24.499999999999996 153936.00000000003 4140.3232421875009 3912.326049804688 37314.500000000007 4015.698852539063 26004.500000000004 127621.50000000001 23028.500000000004 37823.500000000007 4066.8691406250005 3954.0068359375005 36581.000000000007 26081.500000000004 28706.500000000004 33388.500000000007 37823.500000000007 27356.500000000004 23.366666793823246 94266.500000000015 3954.0068359375005 35896.000000000007 4073.618041992188 30047.500000000004 151785.00000000003 3940.6208496093755 22794.500000000004 151785.00000000003 37823.500000000007 4072.359008789063 33388.500000000007 33742.500000000007 3992.6252441406255 37278.000000000007 4013.7929687500005 4099.7248535156259 3903.941040039063 4070.107055664063 4035.8801269531255 30047.500000000004 -3866.4999999999995 37314.500000000007 3984.051879882813 27.44999980926514 3974.1630859375005 20699.500000000004 37823.500000000007 30853.500000000004 36581.000000000007 37278.000000000007 33372.000000000007 22403.500000000004 4131.0498046875009 28699.500000000004 28808.500000000004 153936.00000000003 27699.000000000004 18867.500000000004 15564.500000000002 3989.445190429688 4077.4370117187505 31710.500000000004 29963.500000000004 31079.000000000004 18936.500000000004 46.291666030883796 3987.4499511718755 -6104.4999999999991 4037.564819335938 25594.000000000004 45168.500000000007 25372.500000000004 70.500000000000014 33372.000000000007 17880.500000000004 37296.000000000007 4035.8801269531255 28359.500000000004 37314.500000000007 26462.000000000004 33576.500000000007 28632.500000000004
decision_type=2 2 2 2 2 8 10 10 2 2 10 2 2 2 2 10 2 2 2 10 10 10 10 2 2 2 2 10 2 8 8 10 2 2 2 2 10 2 2 2 10 2 2 2 2 2 10 10 2 8 2 2 2 2 10 10 2 2 2 2 2 2 10 2 10 2 10 2 2 10 2 2 2 10 2 2 10 2 10 10 10 10 10 2 2 2 10 10 8 2 2 2 2 2 2 2 10 2 2 2 2 2 2 10 8 2 2 2 2 10 8 2 10 2 2 2 10 2 2 2 8 2 2 2 2 2
left_child=1 4 5 29 15 25 124 -8 9 18 11 37 14 17 35 42 54 83 70 24 22 -22 32 44 86 36 -21 28 -26 31 48 47 33 69 111 -10 78 82 57 85 72 58 -1 49 110 62 73 -3 56 116 -36 -51 -53 79 61 80 64 -25 59 -30 118 -17 -28 -39 -31 -41 -66 68 -45 122 71 -7 75 -23 109 103 -24 81 -2 -48 -35 -78 114 -14 -52 104 87 88 -13 95 92 94 101 -94 -92 -90 -12 -98 99 121 -69 -91 -103 106 -32 -97 108 -108 -37 -18 -16 115 -33 -62 -5 -34 -44 -100 -54 -117 -67 -46 123 -6 125 -4
right_child=2 3 6 10 20 8 7 -9 12 -11 96 19 13 -15 23 16 74 -19 -20 26 21 46 76 38 27 -27 45 -29 41 30 39 112 34 55 50 40 -38 63 -40 65 -42 -43 43 67 98 -47 53 -49 -50 51 84 52 60 -55 -56 -57 -58 -59 -60 -61 113 -63 -64 -65 66 120 -68 100 -70 -71 -72 -73 -74 -75 -76 -77 77 -79 -80 -81 -82 -83 -84 -85 -86 -87 -88 -89 89 90 91 -93 93 -95 -96 105 97 -99 117 -101 -102 102 -104 -105 -106 -107 107 -109 -110 -111 -112 -113 -114 -115 -116 119 -118 -119 -120 -121 -122 -123 -124 -125 -126 -127
leaf_value=-0.064988102504988168 -0.047729775756284329 0.046164361396801655 -0.034256258563827982 0.075151688005408612 -0.035811719106579855 -0.066304115452591392 -0.066752333724873644 0.09285210744844935 -0.036610591168450245 -0.074548836709236843 0.093335490845550262 0.088916544131365793 0.023487250294058622 0.084103550169801561 -0.072629601742594252 -0.024709412529875262 0.083702845019911765 -0.067897397286328071 0.083030215319925493 0.090967672468122707 0.065485211278651964 0.0032200374594008544 -0.055326270948085947 0.033516376175136114 0.074029544793394228 0.095472390785465211 -0.069037022127690126 0.095315033542968663 0.070819946204264447 -0.035491368402044657 0.050773916677096076 0.060267018868508597 -0.021897886682415726 -0.003445099553996106 -0.011688328199684048 -0.025903900125131898 0.093763692575732138 0.08798450176718732 -0.072771411263532218 0.050808286316461518 -0.059411005875241334 0.036192076855167392 -0.059362221503294579 -0.052187192405923566 0.071557328568738143 -0.059842246626696051 0.046319040789131655 -0.013579584072992002 0.057102449263003077 -0.036926851929828579 0.06918117062679506 -0.057435782565577104 0.050310616905726829 0.097243362898442917 -0.059091173638260802 0.034357896698133834 -0.070615802672265249 -0.050876237366596147 -0.072597752358356235 -0.059913608154836817 0.01294087408121849 0.064818526600397053 0.022103591165270883 0.067445584522424717 0.017929537493425719 0.068522244269587695 -0.0253560238471103 -0.032385980948837621 0.045339477483284797 0.0063220270876871891 -0.067668180831905511 0.10848131942734858 0.089492096072764177 -0.03248992342905787 0.096353764879995876 0.091813292247625078 -0.016482003775318079 0.076098599620662746 0.050682479147930982 -0.01166766020664929 -0.038745225899929708 -0.056624539524560404 0.026757637572927259 0.08865566991391699 0.016679009768395609 -0.027765280464746734 0.092628680195200777 -0.0082795208884237793 0.075203145115725886 -0.010875932381859606 -0.02624001817774077 0.099734789755491923 0.035704426196147381 -0.046158277742592034 0.070770917037110553 0.02677305660126178 0.074381396344809073 -0.015998152320197672 0.081244699330394632 -0.042826105139029569 -0.073366060689551191 0.040245547285489958 0.086937506060092401 0.087813632720175144 0.021135174428227741 -0.046676849544963109 0.036628207000451392 -0.054345934096060089 0.068572799190429953 -0.011536094278181653 -0.013635040655536593 0.012494487605909706 0.084361184266944111 0.074537585021551653 0.056623560474749271 -0.0010511656791038894 0.06838928752395422 0.023761819972969018 -0.021788494130819992 0.061552891808651693 0.031692513648852116 0.0051468652706056529 -0.064878870618819404 0.0069842700434488399 -0.073174862675644561 -0.071158346544597739
leaf_weight=9810.0852621905506 609.07310107350349 1528.5768059529364 1827.1447450816631 3722.267220813781 8394.2030236832798 92.188562825322151 3330.8557626903057 2082.2362751066685 525.78991369903088 4290.8434542119503 16250.534874875098 1032.3572084903717 556.97503864765167 4179.3702698945999 337.54474478960037 777.41531535238028 156.5513907968998 1095.4637845754623 1247.6738671660423 500.20501652359962 2873.5137185826898 1781.2352892532945 5221.859901625663 519.34301674365997 712.31571161746979 3986.8441442251205 223.71270596981049 628.0627453327179 284.22165989875793 1405.0099705308676 1159.7540119104087 3575.9163390509784 2240.2247155755758 14596.376260522753 620.31037831306458 144.41753080487251 307.6939991414547 11762.307045400143 2731.6416711807251 9324.2784066721797 220.41326260566711 439.11727529764175 2221.3405111134052 1599.7238795757294 373.28335320949554 1473.4578728675842 594.29279505088925 1234.2222734577954 489.70194205641747 2836.8642444312572 1637.6087568998337 564.06354331970215 176.68763917684555 325.86686024069786 1545.6828675344586 1355.5688543058932 561.54196472465992 550.62626659870148 1242.7747479081154 549.63401055335999 363.342604637146 262.80788396298885 901.41231772303581 5028.1414424180984 2192.1520891413093 566.43286729976535 1158.2792412303388 661.38758121430874 322.83233237266541 899.09865035861731 529.50324328243732 112.50469589233398 913.06481945514679 2888.2451985888183 730.66465753316879 423.45116251707077 1611.7033322006464 149.77945402264595 169.83633822202682 1030.6309039369226 1078.2604790814221 1295.5086779110134 946.11688897013664 452.2993146777153 502.41495192050934 404.71754625439644 737.21754425764084 376.48646992444992 166.09479269385338 178.7280655503273 285.80257034301758 1567.0341508388519 760.40421289205551 277.47474813461304 288.79700088500977 327.82322281599045 836.03859296441078 150.11482997238636 462.46837303042412 442.28314304351807 4223.6871298849583 918.45338886976242 1022.7544103860855 220.37356251478195 10292.953496024013 346.55126911401749 360.66561889648438 332.85989031195641 458.32302092015743 263.40988260507584 1061.9654866605997 3290.1195126287639 2480.2796183563769 573.07868361473083 6751.6160189658403 1599.9520315602422 48.483417138457298 482.30979239940643 762.30096358060837 215.25545227527618 9808.1145416758955 277.38266798853874 728.04343508183956 668.87193965911865 45575.7315787673 7156.8130147457123
leaf_count=79781 233 14189 157 45619 78292 138 106 70 411 167 33706 165 94 66 87 4097 36 59 50 108 18667 13773 41352 73 168 114 69 80 105 14471 13474 34388 6346 153014 57 169 77 96890 61 109982 83 51 2343 1364 142 93 5351 11641 79 4705 149 123 44 55 7793 13950 61 41 91 65 101 182 362 8331 22346 3280 12846 331 33 6858 213 9 68 22759 26 50 13410 51 78 8766 11035 11909 7570 53 68 91 210 97 76 90 57 86 215 47 57 134 6206 120 65 45 290 399 278 153 120156 89 114 81 311 108 466 6288 23396 87 40457 1657 39 50 218 73 54644 103 89 1018 156 95
internal_value=0.00114074 0.0201714 -0.0398224 0.0525096 -0.0212179 0.0145429 -0.065629 -0.00535109 0.00106028 -0.0392173 0.0674895 0.0579757 0.0158176 0.0525742 -0.00549674 -0.0457589 -0.00344852 -0.0100412 0.0372737 0.0300136 -0.00890211 0.0155278 -0.0139329 -0.0262698 0.0408192 0.0767016 -0.0123245 0.00664043 -0.010635 0.0328231 0.0277574 0.0542786 -0.00700295 -0.0138187 0.0116917 0.0362754 0.00780068 0.0730807 -0.0550892 0.0345027 0.0487533 -0.034629 -0.0523008 -0.0436254 0.00560989 -0.0322366 -0.00616199 0.0194779 -0.00889817 -0.0299409 0.0414637 -0.0184619 0.00301535 0.0242456 -0.0361551 -0.00267138 -0.0149875 -0.00991593 -0.0496173 -0.0153153 0.0212207 -0.00204524 0.00393212 0.0818385 -0.00840413 0.0418059 0.00296067 -0.0587872 -0.035793 -0.0315747 -0.0404842 0.0297985 0.0571289 -0.018869 0.0700192 0.041857 -0.045591 -0.0289473 -0.0262277 0.00955252 -0.00587604 -0.0343853 0.0601978 0.0527558 0.0568711 0.0223669 0.056722 0.0532028 0.0564316 0.0509552 0.0580629 0.0790481 0.0438087 0.0137904 0.0225478 0.00611675 0.0914675 0.0606163 0.0286356 0.00843862 -0.0678266 0.0584892 0.0648806 0.0278545 0.0241411 -0.0109776 0.0175973 -0.00704332 0.0459223 0.0240693 -0.0279091 0.000499016 0.0701478 0.050682 0.0632152 -0.0092322 -0.0566023 0.0519611 -0.00817734 0.00639975 0.0337102 0.0433052 -0.0350555 -0.0326523 -0.0716092 -0.0636585
internal_weight=278811 190369 88441.3 106870 83499.4 28468.5 59972.8 5413.09 23395 6272.71 60688 43451.3 17122.3 6284.11 10838.2 27900.4 3736.53 2104.74 1981.87 15240.9 55598.9 9493.78 46105.2 7238.85 12142.1 5073.45 3098.79 3856.13 3228.06 46181.9 37362.9 8819 37826.3 27720.4 10105.9 3599.36 1086.6 28210.4 3801.61 31556.3 3073.57 2515.75 24163.9 14353.8 3437.24 2598.58 6620.27 2762.8 5806.69 7546.16 2760.33 5276.34 2439.47 1950.79 2585.91 17030.2 5316.98 1069.97 2076.63 833.856 1875.41 1040.22 1125.13 16790.4 4755.44 19698.8 3350.43 6807.63 1922.56 10690.2 734.197 204.693 2853.16 4669.48 1150.63 1940.09 8278.85 3056.99 778.909 1624.92 15674.6 2907.21 11420 1009.27 2140.02 11857.4 8285.98 7548.76 7172.28 6139.92 5299.45 2141.63 3157.81 1037.88 574.6 840.469 17236.7 986.153 2037.73 1092.95 4885.07 2119.94 1941.21 1516.64 11452.7 674.374 1296.27 693.526 602.741 419.961 1399.51 7345.55 6056.2 936.421 10473.9 4055.43 2269.82 944.778 938.989 1815.21 10374.5 650.666 9791.12 9063.07 54559.7 8983.96
internal_count=1198331 1193823 4508 677135 516688 3924 584 176 3422 577 242091 202059 2845 272 2573 101701 12242 206 410 3192 414987 69371 345616 1133 2560 502 632 560 480 435044 351430 83614 278894 264256 14638 1440 388 198867 175 301627 1029 312 89459 9678 958 524 50704 25830 49803 7660 274 5278 573 14172 12072 177999 49724 114 261 170 450 4279 431 105221 49663 167906 35192 2018 1397 86257 360 147 946 36532 170 878 66722 25370 311 14117 164049 25319 93646 147 217 133721 2000 1790 1693 1528 1229 200 1029 262 114 299 40032 6326 405 290 621 767 677 828 133630 223 675 195 480 144 553 14364 57784 188 86076 8076 2382 115 262 1730 57924 245 79399 79310 408 252
is_linear=0
shrinkage=0.05


Tree=5
num_leaves=127
num_cat=0
split_feature=17 18 12 12 12 6 18 16 14 17 17 11 12 12 11 12 12 12 12 15 17 5 5 7 6 1 5 16 12 12 17 11 3 6 17 4 7 11 7 4 17 5 4 1 12 12 2 12 12 12 2 12 11 17 15 11 3 18 12 5 7 4 12 17 4 4 12 3 5 4 18 3 16 16 15 13 4 1 6 4 1 16 7 6 11 12 16 4 4 3 2 1 18 7 17 2 16 12 18 12 7 12 18 2 17 14 3 1 11 3 16 16 3 2 18 1 1 17 7 18 12 14 14 14 12 6
split_gain=115874 92485.1 60390.3 14514.9 9474.34 10621.1 15488 8596.18 7413.84 6700.86 6556.81 6217.95 5354.95 4431.96 3413.4 3212.8 2857.83 2561.64 2434.61 2313.19 2118.97 2008.71 1848.13 1794.8 1786.29 1762.4 1744.41 1535.84 4471.54 1421.51 1347.27 1320.46 1874.13 1297.1 1427.54 1293.49 1232.53 1230.6 1194.46 1130.82 1089.19 1005.59 967.524 928.98 919.553 864.285 785.541 1274.83 723.831 721.243 710.908 703.817 703.57 698.328 682.252 641.486 616.929 689.781 616.547 586.72 989.137 717.262 556.72 529.513 523.517 552.594 496.274 879.42 563.935 645.57 483.928 479.289 460.178 2279.69 451.866 429.544 421.244 413.077 402.147 400.981 394.527 379.447 367.832 361.584 361.534 358.261 354.489 623.567 353.301 349.954 343.172 335.057 334.641 463.143 328.564 312.846 308.027 307.749 353.712 304.399 300.588 296.289 349.265 293.089 279.996 274.389 272.032 271.467 582.323 550.102 268.476 1258.38 1212.92 290.892 434.775 268.399 263.338 263.206 252.215 250.547 243.944 241.536 240.841 240.436 238.954 360.806
threshold=4.0241699218750009 9.5000000000000018 -165.49999999999997 -956.49999999999989 -35215.499999999993 37278.000000000007 6.5000000000000009 3872.2861328125005 12.09999990463257 146.58874511718753 -36.343017578124993 153936.00000000003 -11874.499999999998 8494.5000000000018 153936.00000000003 -1739.4999999999998 9471.5000000000018 -24257.499999999996 -13902.499999999998 4034.361938476563 108.03491210937501 33546.000000000007 37241.000000000007 37823.500000000007 23659.500000000004 31179.000000000004 37241.000000000007 4042.099975585938 -1397.4999999999998 -4144.4999999999991 -76.943725585937486 121859.00000000001 36884.500000000007 37278.000000000007 65.271850585937514 29348.500000000004 37823.500000000007 153936.00000000003 31710.500000000004 29348.500000000004 25.210937500000004 33546.000000000007 27232.000000000004 21305.500000000004 1176.5000000000002 3347.5000000000005 29436.000000000004 -5559.4999999999991 -12661.499999999998 -6299.4999999999991 24485.500000000004 -20265.499999999996 92196.000000000015 44.383789062500007 4190.9492187500009 109789.00000000001 26454.500000000004 7.5000000000000009 -12269.499999999998 33546.000000000007 37823.500000000007 33077.500000000007 -2138.4999999999995 -36.343017578124993 33077.500000000007 27232.000000000004 14168.500000000002 31088.000000000004 27699.000000000004 36581.000000000007 3.5000000000000004 33372.000000000007 3889.035034179688 3886.4550781250005 4036.5449218750005 33.899999618530281 29348.500000000004 20634.500000000004 19959.500000000004 1166.5000000000002 36808.500000000007 3761.938842773438 20513.500000000004 33576.500000000007 153936.00000000003 16051.500000000002 4197.3020019531259 29348.500000000004 27232.000000000004 33372.000000000007 28283.500000000004 36808.500000000007 8.5000000000000018 37823.500000000007 -76.943725585937486 36714.500000000007 3966.688110351563 1394.5000000000002 6.5000000000000009 20562.500000000004 34071.500000000007 -1051.4999999999998 1.5000000000000002 22980.500000000004 -90.435180664062486 25.899999618530277 33372.000000000007 27420.500000000004 153936.00000000003 26454.500000000004 3988.1689453125005 3993.152954101563 31088.000000000004 36714.500000000007 8.5000000000000018 22472.500000000004 27420.500000000004 37.473266601562507 28808.500000000004 8.5000000000000018 1639.5000000000002 50.899999618530281 15.09999990463257 21.774999618530277 3030.5000000000005 26811.500000000004
decision_type=10 2 2 2 2 2 2 10 8 10 8 2 2 2 2 2 2 2 2 10 10 2 2 2 2 2 2 10 2 2 10 2 2 2 10 2 2 2 2 2 10 2 2 2 2 2 2 2 2 2 2 2 2 10 10 2 2 2 2 2 2 2 2 10 2 2 2 2 2 2 2 2 10 10 10 10 2 2 2 2 2 10 2 2 2 2 8 2 2 2 2 2 2 2 10 2 10 2 2 2 2 2 2 2 10 10 2 2 2 2 10 10 2 2 2 2 2 10 2 2 2 8 10 10 2 2
left_child=1 2 4 9 59 10 23 13 35 17 58 15 31 44 16 118 30 19 26 123 45 29 70 51 -24 77 36 46 -29 52 120 -12 37 34 49 -5 86 119 43 106 -35 66 -39 -20 95 80 47 -13 -36 83 -49 -7 -14 -42 -11 104 57 -44 -6 60 -1 -62 -53 -57 65 90 -17 -68 69 -69 -15 -27 73 -47 -16 -55 -40 -23 -43 -72 84 -60 -75 -19 117 -81 -8 -88 89 -79 -34 -58 124 -94 -83 -4 -85 -32 -99 -26 121 102 -31 -90 -18 115 -21 108 -54 -109 -74 112 -112 114 122 -100 -56 -10 -3 -33 -9 -50 -113 -2 -46 -126
right_child=3 11 7 8 5 6 18 14 20 54 12 27 21 22 74 41 55 33 38 39 -22 25 24 -25 99 71 -28 28 -30 101 97 32 64 40 48 -37 -38 42 76 -41 53 78 56 -45 92 72 -48 50 100 -51 -52 62 107 75 116 63 91 -59 81 -61 61 -63 -64 -65 -66 -67 67 68 -70 -71 79 -73 110 82 -76 -77 -78 88 -80 85 -82 94 -84 96 -86 -87 87 -89 103 -91 -92 -93 93 -95 -96 -97 -98 98 105 -101 -102 -103 -104 -105 -106 -107 -108 109 -110 -111 111 113 -114 -115 -116 -117 -118 -119 -120 -121 -122 -123 -124 -125 125 -127
leaf_value=-0.069594109880204633 -0.014264727497879662 -0.065140705516608985 0.023343949889840884 0.076929975559565156 -0.068280862636886458 -0.046607589368502192 -0.071165366053614607 -0.03550736745841853 0.037619365614256516 0.086046312857744056 -0.055525606174727328 -0.069863719544796324 -0.030912707986775673 0.080654107039540235 -0.025880948697015124 -0.00065245275448385959 0.038415871852776451 -0.026723690084185327 0.05784327189158165 -0.052393726919367702 0.089119928712472277 -0.04533249903910453 0.07849649482655438 0.092846288843165592 0.0068396329043245892 0.037194106208664195 -0.0682751333588687 -0.070068357501103865 0.053939995411015351 -0.014832031932310525 0.0022305716552988831 -0.022674718480553531 -0.031173467296551061 0.086799775091249254 -0.010166925470648335 -0.074914043784829118 0.046900336448942981 -0.019073428613133027 -0.00090060231063865913 0.07223996224493158 -0.052043907531916268 0.024055613366659616 0.059410025629322127 -0.053208455153104156 0.038276781530612772 0.080707201005169871 -0.072579747973392797 -0.047270382451870138 0.046866646457828516 0.013100995576670955 0.019137615630568393 0.05994751488926954 -0.0054770993596759522 -0.027157143818272913 0.035458405200727273 -0.002223403275513256 0.041779616262542077 -0.063781023801514028 0.076525528257908079 -0.073612311567901198 -0.051175995488124938 0.090819982118207479 -0.037739380606899402 0.060167262592704579 -0.070734429580832245 -0.06403683687062621 0.081322683415798916 0.061399965697506512 -0.043057621811548874 -0.042798994894946485 -0.078013051463801053 0.092982177052894174 0.084046956960108332 0.072980092566753085 -0.071323214470091781 0.082863820007036362 0.069546161642719831 0.015889462458251652 -0.058633802133092841 0.055907630683905307 -0.013221991415342679 -0.05511280243726159 -0.084728855123879246 0.089142675277555428 0.093194547087005697 0.075154184128667284 -0.050582668138264855 0.048238129209171449 -0.020898323657877842 -0.077118701854318211 0.066800008099570138 0.10268935961411439 -0.006970817699566742 0.057585777777234726 -0.035384190616912954 0.08126071704845679 -0.02948334119827033 0.0326979046576093 -0.031109434471863213 -0.047925439731814498 0.083985263697719817 0.0097359121291718687 0.0035653254429468409 0.063793927106550366 0.076043914209011881 -0.026136392572490008 0.07454046879353074 0.0084822962431491244 0.069225491659579128 -0.051876463540256171 0.080495307269907668 -0.077052371334080827 -0.067292918793882481 0.092262238578932843 0.008710037253802351 0.08609884523627194 -0.070124055845309743 0.059013172479118831 -0.036787493742059245 -0.057225639939988443 -0.0094212635570292136 0.013471393717673858 0.07423560385919048 -0.074776393423392318 0.053477604634982502 0.030019048482485801
leaf_weight=676.77882334589958 182.71137411147356 2507.001116015017 8792.7919418253005 163.6702734567225 5430.6250917091966 251.69544133543968 479.88561199605465 1611.8913852423429 2254.993509080261 3616.0666853897274 7574.5026392415166 3160.5499946475029 7745.1736819259822 9559.854479406029 1065.3630074262619 1559.5476393848658 655.67066703364253 2973.4107498079538 256.41701550781727 355.66434726119041 21878.896558783948 466.44034221768379 736.22317332029343 5087.9892374277115 457.06460708379745 658.21774378418922 3243.3575568795204 2818.4514509439468 978.59554648399353 4480.3562420643866 2155.6749784164131 2288.2260921895504 162.73041793704033 1096.9163936376572 779.2294458001852 949.227334856987 667.00273501873016 1033.4954016208649 281.13765501976013 562.01698684692383 291.34526221454144 187.53702944517136 223.71598905324936 700.92464488744736 7152.9177354201674 1187.1457949914038 55536.186253964901 833.66706264019012 1970.4591016918421 2664.6655215732753 778.33112645149231 985.14721077680588 3366.7236791998148 127.78956365585327 232.88399532064795 776.492675319314 521.10581374168396 228.8566682934761 60.877366434782743 8642.5177867338061 150.29100225865841 214.98151296377182 170.39728716015816 603.78325814008713 2222.6075543761253 380.12402260303497 707.09254069626331 562.20053347945213 344.43968200683594 201.08540385961533 48.086023658514023 934.96226125955582 6683.9401992969215 41.313387703150511 1128.3118051290512 285.72971613705158 862.36701291799545 249.75503708422184 670.73623833060265 4877.0383854098618 219.60093368589878 5727.4375986047089 301.32167035341263 128.79841426759958 563.22754502296448 4845.9686447791755 445.30245195329189 247.54822358489037 140.73143738508224 168.58349084854126 195.96185970306396 401.30814576148987 717.48410978168249 452.08267569541931 3358.2607035152614 238.7881632745266 93.852887257933617 3248.8303865343332 77.479843609035015 568.34204983711243 402.81726202368736 5914.3101439364254 6078.3013492077589 367.00627744197845 2060.5092006698251 503.72151906788349 46.956216990947723 683.86936020851135 281.77943801879883 840.57153883576393 248.06921205297112 25.696165926754475 312.6785523891449 1965.7816378772259 281.28161710500717 129.03125680983067 78.004569083452225 4015.1662392243743 1150.0881853252649 681.47837190330029 2020.7981417812407 748.51063730195165 3767.7760353498161 1682.8820959143341 10421.703173577785 1951.6225863918662
leaf_count=2480 450 8254 99678 1445 26918 90 243 18938 24205 6565 62206 230 86771 79459 81 1258 4848 15316 131 1430 63604 431 161 89 100 235 88 148 60 54467 24688 2824 72 89 3343 31 93 254 91 75 70 71 59 236 64334 7245 417 63 14843 21075 43 360 9349 46 1919 554 98 67 134 327 112 11 53 445 36 49 261 171 53 40 12 57 24655 384 69 144 114 312 178 9625 62 55460 77 58 23 7183 284 68 93 32 44 29 678 57 30817 46 90 30704 148 46 141 68617 44677 109 15375 712 33 1112 48 296 1430 71 67 229 201 121 44 42140 1558 877 16576 6375 28095 974 90407 1366
internal_value=-0.000277385 -0.0170726 0.0049067 0.059556 -0.0227449 -0.0168493 0.0230771 0.0405712 0.0748712 0.022053 -0.0255369 -0.0638083 -0.0166645 0.0506427 0.00865508 -0.0219189 0.0178383 0.00625612 -0.0275098 -0.0363712 0.0781135 -0.00499071 0.0681728 0.0790243 0.0191285 0.0340769 -0.0462201 -0.0689633 -0.0381011 -0.00896059 0.00310905 -0.0404123 -0.0266799 0.016692 0.0094942 -0.0525293 -0.00731962 -0.00908653 0.0177588 0.0264696 0.055659 0.00773858 0.0174663 -0.0234295 0.0382024 0.0670977 -0.0709056 -0.0514121 0.0329265 -0.00610492 -0.0152111 0.0290157 -0.0213771 0.00713618 0.0799368 0.0528758 0.0449285 -0.0028774 -0.0549259 -0.0693373 -0.0338396 0.032402 0.045518 0.0250887 -0.0586154 -0.0221041 0.0200314 0.0377993 0.00996426 0.0339224 0.0726408 0.0699744 0.0739611 0.0479263 -0.0492782 0.0488686 0.0522364 -0.00701055 -0.040553 0.0647927 0.0526719 -0.0469895 -0.0655414 -0.0221182 0.0547918 0.0655074 -0.0381756 -0.0152492 0.0123139 -0.0216739 0.0223747 0.0683671 0.0440125 0.0180064 -0.0478259 0.0248846 0.0392083 0.0174363 0.0257117 -0.0235267 0.0436845 0.000776863 -0.00424142 0.0403147 0.06698 -0.0062392 -0.0374294 -0.00709581 0.000308313 -0.0248082 0.0769548 0.0697614 -0.00187707 0.0764117 0.0687429 0.042162 0.00881094 0.0513271 -0.056238 -0.0306216 -0.0210041 0.0376834 0.0731895 -0.0688635 0.045569 0.0497807
internal_weight=288265 225085 153089 63180.5 86231.8 76547.3 13679.2 66857.5 44859.8 18320.7 62868.1 71995.5 48290.9 50820 16037.6 7889.73 13843.9 14393.8 7183.94 2830.23 43746.9 32376.8 21092.6 6495.23 1761.63 2985.7 5083.1 64105.8 3797.05 29391.1 9747.43 15914.1 8339.61 11563.5 9761.74 1112.9 1839.74 5378.19 2100.85 964.638 1801.78 4232.64 2408.48 957.342 29727.4 21868 60308.7 4772.55 3901.02 5860.73 1612 1407.24 12918.1 704.865 3926.96 4096.46 1374.99 452.573 14577.2 9684.57 1042.05 365.273 1155.54 1380.28 2961.42 738.816 3374.37 1814.82 1107.73 763.286 19330.9 1593.18 14815 1529.78 2193.67 413.519 1143.5 1392.52 858.273 9771.09 7052.99 9146.58 342.635 3196.06 6833.39 9723.01 1172.74 692.851 926.076 418.339 358.692 922.414 20695.8 1169.57 9085.7 9031.58 222.651 6114.74 3959.06 1025.41 3121.79 16473 10558.7 507.738 2716.18 710.233 402.621 5172.94 3648.5 1524.44 13285.2 6601.28 560.748 6040.54 4074.75 206.511 310.889 6270.16 3657.09 2969.7 3632.69 2718.97 3793.47 1865.59 19526.2 12373.3
internal_count=1197680 930636 917831 267044 451420 448490 1940 466411 193964 73080 446550 12805 333221 353152 113259 11844 113109 64552 1348 2962 192488 266606 96586 592 307 1269 776 961 208 265337 91887 66615 4409 61590 61241 1476 688 4208 572 1538 349 2032 507 367 256566 128884 753 336 24702 36539 106 503 97576 260 8528 21222 253 126 113329 2930 2603 123 413 999 201 165 1783 525 264 211 96279 292 62454 7706 150 190 205 977 249 16820 66430 86411 461 15464 66368 16808 595 352 546 344 116 127 156842 735 86277 99724 148 56373 31685 146 21359 167761 99144 202 20223 981 1463 10805 9397 1408 54748 30093 1497 28596 28367 269 1963 66345 9812 3701 35514 21218 28166 1424 156107 91773
is_linear=0
shrinkage=0.05


Tree=6
num_leaves=127
num_cat=0
split_feature=17 18 12 12 12 17 15 14 0 18 17 12 12 5 12 15 1 0 0 12 4 7 12 7 17 4 5 3 7 4 12 15 18 2 7 4 17 10 16 17 17 4 17 2 13 12 12 4 3 3 16 0 3 12 12 5 17 5 12 16 15 1 3 5 7 4 0 7 12 2 12 12 0 12 18 3 13 14 10 0 16 17 17 3 15 4 12 16 5 15 4 1 1 2 4 2 7 3 18 4 3 1 15 1 10 12 1 16 12 10 2 3 1 14 16 5 17 0 0 0 13 12 2 10 1 4
split_gain=105444 85798.1 54740.4 13268.4 9162.73 9855.29 7449.57 6810.59 6672.05 12022.1 5949.08 5329.59 5163.11 4475.38 3863.92 3515.7 3366.8 3078.36 3042.17 2567.6 2547.15 2526.15 2240.37 1979.61 1813.75 1664.61 1661.41 1577.08 1442.61 1177.61 1169.34 1091.05 1033.38 1829.96 1026.93 1231.34 992.595 985.754 1156.37 956.356 924.253 907.828 898.202 928.11 895.315 878.298 839.103 1116.02 1442.69 808.048 786.037 779.027 757.906 697.128 675.296 670.499 669.504 664.292 636.344 632.002 592.502 581.03 653.115 557.905 914.386 649.81 554.696 537.21 530.811 527.029 509.892 480.179 496.556 477.679 451.37 443.495 433.707 1702.75 698.009 662.712 1583.9 422.115 404.29 386.624 369.752 367.524 361.503 360.001 359.145 352.853 340.158 490.65 507.704 490.036 335.602 330.789 624.9 410.001 340.561 421.211 736.479 483.945 327.975 327.507 333.897 325.953 689.802 409.209 390.3 320.728 318.297 315.337 351.476 312.143 297.386 409.805 289.432 285.841 275.257 264.061 520.527 838.225 259.031 253.1 250.703 250.091
threshold=4.0241699218750009 9.5000000000000018 28.500000000000004 -474.49999999999994 -35215.499999999993 -30.876831054687496 4109.0891113281259 12.09999990463257 25706.500000000004 6.5000000000000009 146.58874511718753 -5924.4999999999991 -19501.999999999996 28699.500000000004 8494.5000000000018 3963.4621582031255 21305.500000000004 37314.500000000007 37314.500000000007 -20265.499999999996 30853.500000000004 28808.500000000004 5938.5000000000009 28808.500000000004 108.03491210937501 30853.500000000004 37241.000000000007 33372.000000000007 37823.500000000007 29348.500000000004 19048.500000000004 3925.675903320313 8.5000000000000018 25773.500000000004 34071.500000000007 36581.000000000007 -11.211914062499998 89981.500000000015 4040.3762207031255 25.210937500000004 -56.694091796874993 36581.000000000007 63.996826171875007 36714.500000000007 30.899999618530277 -12269.499999999998 -5559.4999999999991 24268.000000000004 36884.500000000007 29481.500000000004 4086.5161132812505 37314.500000000007 26454.500000000004 2936.5000000000005 -15304.999999999998 29963.500000000004 -126.13293457031249 33546.000000000007 3347.5000000000005 3977.348022460938 4190.9492187500009 36808.500000000007 26454.500000000004 33546.000000000007 37823.500000000007 33077.500000000007 37314.500000000007 37823.500000000007 -9384.9999999999982 23939.500000000004 -9384.9999999999982 -1051.4999999999998 18298.500000000004 16051.500000000002 6.5000000000000009 29481.500000000004 42.633333206176765 43.100000381469734 133016.00000000003 37314.500000000007 3889.035034179688 -26.209106445312496 -76.943725585937486 17839.500000000004 4041.4028320312505 718.50000000000011 14168.500000000002 3761.938842773438 6578.5000000000009 3935.0368652343755 29348.500000000004 21305.500000000004 28445.000000000004 29436.000000000004 30853.500000000004 36714.500000000007 26883.000000000004 36884.500000000007 8.5000000000000018 33077.500000000007 33372.000000000007 31179.000000000004 3901.7956542968755 36808.500000000007 151785.00000000003 -12269.499999999998 33283.000000000007 4122.2419433593759 -3600.4999999999995 151785.00000000003 36714.500000000007 36884.500000000007 27420.500000000004 24.899999618530277 4043.182983398438 27699.000000000004 -101.36816406249999 37314.500000000007 37314.500000000007 33388.500000000007 13.550000190734865 -1211.4999999999998 30927.500000000004 151785.00000000003 33283.000000000007 29348.500000000004
decision_type=10 2 2 2 2 8 8 8 2 2 10 2 2 2 2 8 2 2 2 2 2 2 2 2 10 2 2 2 2 2 2 10 2 2 2 2 8 2 10 10 10 2 10 2 10 2 2 2 2 2 10 2 2 2 2 2 10 2 2 10 10 2 2 2 2 2 2 2 2 2 2 2 2 2 2 2 10 10 2 2 10 8 10 2 10 2 2 10 2 8 2 2 2 2 2 2 2 2 2 2 2 2 10 2 2 2 2 10 2 2 2 2 2 10 8 2 10 2 2 2 10 2 2 2 2 2
left_child=1 2 4 10 63 45 21 29 11 16 19 37 27 17 53 18 51 30 -15 20 109 22 40 46 58 -18 73 28 -11 -5 105 102 41 84 35 -28 -19 54 81 -22 87 90 43 68 -33 -6 -17 -48 57 -40 59 -10 94 -8 -7 89 117 -49 103 -45 -12 82 -63 64 -1 -66 67 -43 -21 -38 123 72 -13 83 86 -32 77 79 -79 -60 -81 -39 -47 -16 -34 -75 -58 -4 -55 -46 118 93 110 -92 -35 98 97 -97 99 -83 101 -101 116 104 -9 -3 107 108 -107 -2 -93 112 -91 -76 -70 -116 -23 -24 -14 120 121 -25 -62 -44 125 -71
right_child=3 13 6 7 5 8 14 24 9 12 60 71 32 15 26 23 25 36 -20 42 39 31 56 119 -26 -27 34 -29 -30 -31 75 44 33 52 -36 -37 69 38 49 -41 -42 66 70 50 55 61 47 48 -50 -51 -52 -53 -54 88 -56 -57 74 -59 76 -61 122 62 -64 -65 65 -67 -68 -69 114 124 -72 -73 -74 85 113 -77 -78 78 -80 80 -82 95 -84 -85 -86 -87 -88 -89 -90 111 91 92 -94 -95 -96 96 -98 -99 -100 100 -102 -103 -104 -105 -106 106 -108 -109 -110 -111 -112 -113 -114 -115 115 -117 -118 -119 -120 -121 -122 -123 -124 -125 -126 -127
leaf_value=-0.067689387088043049 -0.037150316692553274 -0.066430244135401176 0.098612581233078839 0.074435984466298566 -0.064793584265904522 -0.062478279933651119 0.029370237557485399 0.04984301570536824 0.0191376988980268 -0.042260980739106897 0.082074386336736541 -0.010200130003350287 0.013251661952848848 -0.057536424932361246 0.071708335133799678 -0.066933183660444678 0.024514604853100492 -0.047371623147294879 0.095397335191773305 -0.021920812096030917 0.073268259686565113 -0.075591914137560515 0.013880469633548146 -0.05630484161350461 0.085658335654833703 0.088548305997093832 0.057269653844467951 -0.069136339342568465 0.062982097570225867 -0.07308778211009713 0.094989668234800317 0.063302697515828038 -0.027766475095605883 0.036010928198674935 0.062548919522919119 -0.057159670518477923 -0.0084413735979767309 0.069852268700069803 -0.022058271356142682 -0.026328690909407249 0.019213462274956378 0.043119127150800803 0.0016860726332509506 -0.041967637119072303 -0.083831300633062045 -0.052011244540820012 -0.06829277275261128 0.032650642626612811 0.0724021843137969 0.089728480680434292 0.087505693614136987 -0.059140167608629647 0.083168899390990758 0.058111609065505512 -0.037201806524427804 -0.067552311563105441 0.045210153521481694 -0.04866022846672001 0.073547816678415562 0.057079917099710768 0.037474465778371484 -0.055379608220885806 0.062227139156546409 -0.071870653119717187 -0.049344446303778031 0.086408624811604939 -0.055761664484713036 -0.038310376145890425 0.018970436536704272 0.055249188588890219 0.047638334559307063 0.010041769844093495 0.016892991643185994 -0.072580472571985785 0.06782691951608287 -0.0024266820073723205 0.079663310672998325 0.082841534969253158 -0.076475865064150092 -0.058390712074815491 0.07765721331372015 -0.026239657448522594 -0.031520329457043715 0.05196460150900415 0.094072723945468797 0.078047577745753438 0.076984375559097332 -0.020094858822835331 0.039983217763095269 -0.015406087061857993 0.00031874396012032376 0.016160263247442276 0.06496208262629577 0.100262452838111 -0.06700104582062362 -0.031976067829559592 -0.068680176199483911 0.10472978340189237 -0.047499762421932046 -0.008004692834594377 -0.079791331230583684 0.075637912045314948 0.095441650781418308 -0.012527741763885134 0.089641841795992508 -0.055076345741640755 -0.060542819890793458 0.072060712745187591 -0.0064994532218137519 -0.072615413063666812 -0.072883743854836841 -0.036853670279234078 0.074116191365710016 -0.0044491235733859266 0.0063056170685512492 -0.062480896133379697 0.058051913787182011 -0.070495520580684479 -0.026795456110769451 -0.071852269722719159 -0.072470603994050226 0.023459594838824777 -0.064256606176832584 0.067492203502314801 0.033460730923595007 0.11477033912406337
leaf_weight=661.4491729773581 1233.4718192927539 1939.7021534740925 64.115738783031702 157.55381980538368 6114.5474486723542 4116.0617075003684 14806.97565779835 5522.0048513077199 943.75558215379715 1010.7023096680641 3707.0851085036993 10992.131734069437 1558.6522952616215 688.962721824646 4895.4743219204247 1232.0349156558514 1234.4221692234278 314.63745105266571 614.04940542578697 1866.0419937558472 663.27204496413469 71.415672659873962 637.18255391344428 1646.4309684187174 21391.857406865805 5737.581711769104 373.56670379638672 3781.5396628677845 479.14234754443169 924.93880397081375 161.32517322897911 190.210698351264 880.48681919276714 232.37765100598335 756.06965929269791 630.40335866808891 293.54968589544296 105.37355561554432 289.71964177489281 377.53814050555229 3305.6707199066877 384.78428360819817 1114.1673244051635 314.69161981344223 153.7266598045826 5809.8739655688405 734.50090569257736 352.11069178581238 547.02183002233505 363.63580542802811 619.15102225542068 477.98440909385681 1420.0629066824913 3802.9016525857151 7408.1733366213739 1693.9909051656723 2117.8756101690233 869.95696763694286 6401.4826402068138 327.78422808647156 267.09429797530174 203.08286355435848 279.0449638068676 8415.1429827064276 148.1675136834383 214.71329790353775 962.71631383895874 425.42512804269791 2859.598844345659 366.04714795947075 3214.069952018559 7231.9958671964705 1997.6076756753027 39.90329235047102 206.64180435240269 416.37982320785522 7024.3498200103641 88.407961931079626 297.43374192714691 335.41444636881351 586.83155047893524 3926.4947257936001 4124.805701483041 5069.0392138287425 66.016590058803558 9398.7191695123911 1561.0049093030393 3361.0072125345469 9790.710163179785 231.19051925837994 178.58057951927185 197.72089564800262 223.91939300298691 391.32790982723236 118.57528567314148 137.45304235816002 1101.4023040235043 89.866715431213379 1377.9124116301537 332.87469398975372 172.57200574874878 358.3087152838707 193.31374803185463 192.28625753521919 584.22864639759064 669.62316406145692 2181.3313270658255 114.50462573766708 1080.0526892840862 1329.6861531734467 202.0422203540802 345.64296701550484 206.93719266355038 531.66344415396452 848.03997665271163 289.65441413223743 90.955257266759872 118.10804989933968 590.90245375782251 51681.910188615322 3291.7112733572721 410.9744009077549 80.631683528423309 167.21285879611969 369.45548236370087 347.33562779426575
leaf_count=2480 4943 6705 37 1379 28415 37116 145611 58442 1870 748 7712 121176 1996 357 45164 1021 1061 79 38 8852 54 58 3862 333 60443 160 175 74 69 31 81 171 695 164 59 77 129 77 511 87 33038 76 5011 57 60 58713 198 140 35 91 34 143 91 44650 78445 143 17351 151 37423 44 2324 91 55 327 112 11 18 29 22465 95 23919 87005 6130 13 260 101 24035 682 42 81 191 8063 37450 11827 30 40167 9809 35925 51074 331 150 104 66 45 36 113 191 15 1953 288 35 84 86 54 30 1277 308 101 1080 32 19 85 172 695 8417 191 67 44 229 264 142 87 44 25 44 39
internal_value=-0.000279942 -0.0164315 0.00468242 0.0569412 -0.0211026 -0.0154736 0.0395724 0.0722418 -0.00626054 0.0162032 0.0224104 -0.0183338 -0.0137202 -0.0621019 0.0489349 -0.0667017 0.0629186 -0.0275069 0.0145482 0.0080741 -0.028791 0.00880021 0.0193733 -0.0684443 0.0754021 0.0772167 0.0651082 -0.0519738 -0.00839132 -0.0515626 -0.043006 -0.0308013 0.0120241 0.0369353 0.0185767 -0.0145621 0.0326323 -0.0367865 -0.0235928 0.0371456 0.000355739 -0.00121171 0.0195094 0.00846454 -0.0412063 -0.0497456 -0.0331674 -0.0165289 0.00498636 0.0401929 0.0473496 -0.00719862 0.0669185 0.036881 -0.0462348 -0.0487836 0.0441145 -0.0252207 0.0649667 0.00856776 0.0762215 -0.0409067 0.0126661 -0.067628 -0.0327328 0.0309824 -0.0301254 0.000361404 9.00537e-05 0.0509457 0.0370078 -0.000283188 -0.00603229 0.0693276 0.0515514 0.0248855 0.0706584 0.0624439 -0.0398387 0.0678379 0.0281625 -0.0290799 -0.0435081 0.0616712 -0.0191729 0.0774026 0.0587111 -0.0178432 0.045059 -0.0148286 0.0141246 0.035516 0.00484108 0.0690093 0.00110093 -0.0304803 -0.0531118 0.0222682 -0.0255965 -0.0192864 0.0123101 0.0353949 0.0516136 0.0516425 0.0536657 -0.0495629 -0.0414599 -0.0191072 -0.0251141 -0.0555716 -0.0289001 -0.00119869 0.0269383 0.0158376 0.0103695 -0.0112424 -0.000801003 0.000603855 0.00223323 -0.0707542 -0.060133 -0.0403655 0.0137538 0.0103232 0.0670426 0.0843563
internal_weight=285225 222439 152116 62786 87471.1 78031.7 64644.4 43506.8 61500.3 21498.7 19279.2 40001.6 13105 70323.6 49563.8 62069.7 8393.74 8253.94 1303.01 15224.4 3603.97 15080.7 11903.3 60766.7 42424.3 6972 21163.2 5271.38 1489.84 1082.49 6562.92 3177.38 7833.59 2717.52 1760.04 1003.97 1691.03 19779.8 8255.61 1040.81 6730.79 5116.07 11620.4 7124.96 2821.7 16531.4 3735.63 2503.59 1769.09 653.355 1261.63 1421.74 1771.02 28400.6 11524.2 2631.49 5172.48 1222.07 21032.4 642.476 4054.81 10416.8 482.128 9439.47 1024.33 362.881 1772.93 810.209 5863.34 1376.39 4495.45 20221.7 12989.7 19403.1 4417.19 577.705 14733.9 7709.57 385.842 7323.73 922.246 7602.26 9934.68 9964.51 946.503 9438.62 3678.88 3425.12 13593.6 937.497 3343.15 1193.59 623.683 569.908 350.953 7496.88 1328.72 227.32 6168.16 4790.25 863.755 691.183 355.685 6298.52 6106.23 5985.21 4045.51 1864.18 1749.68 2563.16 399.763 783.771 438.128 738.305 3997.29 1137.69 162.371 755.291 2149.55 57031 5349.12 2057.41 347.726 1281.38 1082.84 713.383
internal_count=1197680 930636 917831 267044 476820 473890 441011 182833 349166 7873 84211 341293 4639 12805 338817 2766 3234 10039 395 74131 5116 102194 101021 2371 181423 1221 97482 891 817 1410 9653 1173 3748 1016 311 252 386 126982 11421 141 69000 2732 69015 40060 962 124724 1545 524 326 602 135 2013 291 241335 115561 791 32021 291 120980 101 10080 96309 146 2930 2603 123 123 105 39925 307 28955 214311 127306 97171 28115 182 62454 38419 724 37695 272 10819 96163 56991 725 40180 27160 35962 95724 648 2609 384 189 195 200 10742 319 128 10423 8470 407 372 211 58526 58472 9471 2766 2458 2357 4975 123 588 503 955 31073 8608 125 3906 2225 826 562 420 2368 5036 178 134
is_linear=0
shrinkage=0.05


Tree=7
num_leaves=127
num_cat=0
split_feature=17 8 12 12 7 17 17 0 12 5 1 5 12 14 6 12 17 10 6 0 3 3 12 15 17 0 15 0 6 0 12 9 17 12 0 7 9 14 9 17 12 7 17 17 6 1 14 12 3 10 17 10 9 7 9 12 5 0 12 15 6 11 15 1 2 5 2 1 1 3 7 12 6 8 9 5 17 14 5 8 12 1 2 2 15 9 5 3 1 14 14 0 15 15 7 1 17 0 17 17 8 12 6 0 15 12 7 8 7 1 14 15 5 0 11 5 12 2 7 12 12 10 17 12 17 2
split_gain=96143.9 83069.3 44234.6 12210 11946.4 8155.44 5668.91 4431.61 5939.67 5081.16 6483.5 4407.24 5020.1 4103.21 3729.43 3262.6 2871.94 2848.16 2404.17 2224.21 2301.19 2108.8 2077.45 2533.56 1831.1 1768.62 1594.3 1519.9 1451.44 1899.29 1481.11 1435.88 1336.91 1680.24 1256.47 1163.82 1116.83 1110.04 1065.52 983.254 977.347 1044.65 973.911 942.915 1335.94 892.895 1015.88 988.8 874.762 874.735 839.657 811.503 752.464 1119.65 747.176 726.442 725.749 716.057 687.717 655.815 653.751 590.782 576.058 552.982 578.15 515.933 543.345 588.514 488.396 474.932 473.147 433.877 426.557 492.233 420.751 610.61 404.129 806.286 554.347 414.516 425.123 1017.2 403.622 802.507 386.282 387.32 384.278 560.011 379.177 375.843 1863.84 583.273 1184.68 388.812 374.233 368.317 358.131 355.609 346.425 317.273 305.843 302.933 302.882 296.384 325.333 322.535 291.558 291.268 289.624 346.052 342.112 338.217 290.033 287.795 286.853 270.742 270.522 269.855 263.54 254.889 254.837 254.403 254.125 242.702 277.597 252.987
